like -0.13443 -0.016333 0.091076 -0.13512 0.27852 0.29178 -0.21126 0.10574 -0.07968 -1.5067 0.50515 -0.087474 -0.21819 -0.040844 0.14312 -0.082217 -0.53797 0.05623 0.32709 0.44037 0.28488 0.47748 0.62411 0.18072 -0.38929 -0.073252 -0.0059524 -0.35452 0.050842 -0.040571 -0.15548 0.43679 -0.4263 -0.26487 -1.11 0.11987 0.019721 0.14673 -0.12203 0.031591 0.077677 -0.32079 0.20393 -0.19557 -0.21029 -0.049291 0.25355 0.22433 0.010408 0.089587 0.36061 -0.53265 0.41946 0.27511 -0.10123 -0.15867 -0.18442 0.23568 0.27679 -0.13319 0.46762 0.040378 0.52146 0.31122 0.0098751 -0.022798 0.0011311 0.5412 0.20078 0.16353 -0.12131 -0.064532 -0.19713 0.20096 0.19576 -0.19618 -0.0043751 0.19402 -0.08638 -0.12761 0.24931 -0.0256 -0.092533 -0.22999 0.099159 0.12469 -0.13303 0.72458 0.16824 -0.13489 -0.15984 0.73847 -0.097546 -0.23225 -0.089774 -0.12451 -0.20881 -0.36301 0.17261 -0.26265 0.20784 0.11085 -0.19082 -0.15476 -0.33242 0.13823 -0.17197 0.25725 -0.29254 0.14508 -0.066827 -0.33656 -0.06018 -0.11604 0.4364 0.36187 -0.11322 0.3354 -0.22812 0.077527 0.073715 -0.58608 0.1874 0.22854 0.17046 -0.19908 -0.30228 0.45081 0.1603 -0.036753 0.29221 -0.060825 0.21799 -0.026588 0.10468 -0.27298 0.037424 -0.0044505 -0.25896 0.31922 0.2628 0.15888 0.3198 0.37559 -0.13872 0.17042 0.10065 0.078357 -0.014909 0.044071 -0.24325 -0.16158 -0.012374 -0.27028 0.033992 -0.032562 -0.059195 -0.23288 0.41683 -0.059207 0.22018 -0.12118 -0.2038 -0.24329 -0.26297 0.085991 0.0064638 0.22861 0.19537 -0.0012901 -0.045607 0.23671 -0.64782 0.29687 -0.21052 -0.42113 -0.059717 0.26027 0.033373 0.030416 0.23425 0.042591 0.49488 0.032922 0.15544 -0.31879 0.0021988 0.11559 0.13348 -0.25235 0.19248 0.053158 -0.11348 0.077442 0.012753 -0.04966 0.23384 -0.098939 0.10033 -0.1115 1.4006 -0.24893 0.22823 0.017223 0.091787 -0.10686 0.013698 0.009888 -0.023554 -0.22982 -0.26896 0.32429 0.34131 -0.33465 0.14921 0.053536 0.16791 -0.010294 -0.23161 -0.34258 0.18642 0.1435 0.095819 -0.14587 0.17523 0.13067 0.19919 0.28649 -0.12757 -0.29474 -0.25396 0.13178 -0.1317 -0.030551 0.26526 0.30241 0.43568 0.058245 -0.25201 -0.31006 0.060397 0.023978 -0.19905 0.22073 -0.57367 -0.11778 -0.28104 -0.011827 -0.27985 -0.018071 0.31566 -0.23372 -0.24394 0.35835 0.48492 0.017522 0.083414 -0.42077 -0.39068 -0.25228 0.13648 -0.15763 0.65683 -0.20055 0.17794 0.071179 -0.5043 -0.091564 -0.10302 0.61491 0.018185 0.11858 0.10756 0.077765 -0.16541 0.24248 -2.2639 -0.42391 -0.19102 -0.30528 -0.36999 -0.088976 0.064001 0.0082633 -0.017181 0.3676 0.017039 0.063698 -0.068058 -0.26708 0.12756 -0.25388 -0.20297 -0.0039839 -0.088324 -0.3185 0.20845 -0.27469 -0.059464 0.49494
school -0.64161 0.06824 0.051487 0.064869 0.21723 0.054558 0.13024 -0.10667 0.14072 -0.93076 0.17477 0.42712 0.6672 0.44806 0.040159 0.33519 0.0069483 -0.73516 0.40616 -0.6518 0.052317 -0.27736 -0.081789 0.55772 -0.14005 0.20077 -0.15129 0.024109 0.20042 -0.0018521 1.0963 -0.3277 0.14748 0.83094 -0.89014 0.032464 -0.14011 -0.0058803 -0.24651 -0.21943 0.22134 -0.70916 -0.33977 0.22341 0.45329 0.29131 -0.019803 0.63039 0.60066 -0.55588 0.079623 -0.21045 -0.0468 -0.47401 0.092838 -0.14301 0.062879 0.29913 -0.059922 -0.36503 -0.054157 0.063134 0.41571 0.26924 0.18764 -0.74354 0.11313 -0.32984 -0.5567 -0.48854 -0.63728 -0.64813 -0.51405 -0.20622 -0.28326 -0.19427 0.23696 0.80155 -0.19739 -0.14081 0.17155 -0.28588 0.11697 -0.15297 0.38919 0.022305 0.42353 -0.40057 -0.25891 0.47362 0.19845 0.25841 0.026475 0.25707 0.076718 -0.038436 0.26509 -0.14234 -0.89589 -0.19442 -0.29115 -0.061827 0.23151 0.47197 -0.1379 -0.58582 0.012926 -0.039827 0.1092 -0.068868 -0.30203 -0.68411 0.6468 0.38228 -0.010111 0.016152 -0.22873 0.14318 -0.1832 -0.051417 0.079725 0.54102 0.086507 -0.19234 0.19465 -0.53547 -0.042695 -0.27354 0.61035 -0.16446 -0.073264 0.10742 0.64089 -0.492 0.275 0.25291 -0.1034 0.38821 -0.41347 0.038299 0.51165 -0.014268 0.12695 -0.82008 0.12296 -0.12291 0.50211 -0.16886 0.31155 0.58806 1.1202 -0.13103 0.70168 0.55765 0.13997 0.14697 -0.33871 -0.19498 0.16068 0.18296 0.81318 -0.50526 -0.05041 -0.83246 -0.36023 -0.5767 -0.066416 0.41684 -0.15166 -0.16916 0.18017 -0.11211 -0.49226 0.57539 0.18002 0.78844 -0.031432 -0.63417 0.36353 0.12123 0.087792 0.37909 -0.19283 0.0078218 0.041315 0.44721 -0.67678 0.067948 -0.026153 0.32517 -0.50928 0.071717 0.13885 -0.12809 0.24737 0.55598 -0.33073 -0.31008 0.33718 -0.29018 0.9747 0.33833 0.14512 -0.1221 -0.10004 -0.46636 -0.324 0.2066 -0.25499 0.17932 0.076575 0.095538 -0.58068 -0.28031 -0.018916 -0.1459 -0.13179 -0.27302 0.060837 -0.69488 0.25779 0.30887 -0.36916 0.26813 0.40887 -0.035938 -0.37564 -0.22307 -0.40262 0.0039288 0.010849 0.29434 -0.57996 -0.342 -0.12675 0.27396 0.99212 0.17445 -0.10461 0.25403 0.42659 -0.10019 0.35478 -0.28901 -1.1165 0.384 0.1675 -0.15567 -0.025741 -0.11852 0.44902 0.45213 -0.41616 -0.029712 0.074412 0.020578 0.71285 0.21487 -0.14977 -0.25878 -0.23096 -0.46956 0.20738 -0.63445 0.31301 0.075033 -0.30934 0.055355 -0.07039 0.67768 -0.99573 0.043487 0.25511 -0.14198 0.11963 -0.22128 -2.4439 -0.13592 0.051828 0.65525 -0.0090219 0.14642 -0.32958 -0.34853 0.15741 0.99815 -0.10566 0.25076 -0.20421 -0.48349 -0.23959 -0.32026 -0.48219 0.40511 0.4321 -0.37059 0.22151 -0.84095 -0.27062 0.25325
get -0.14124 -0.11836 -0.30782 0.098416 0.22392 0.16936 0.14836 -0.030609 0.12675 -1.678 0.047008 -0.51472 0.061434 0.011199 -0.46598 0.14791 -0.45031 -0.23769 0.092859 -0.066591 0.17914 0.47964 0.29055 -0.21231 -0.34667 0.075214 0.23294 0.054657 0.11197 0.083518 -0.061204 -0.08805 -0.28647 -0.10179 -1.6608 0.16875 -0.083723 -0.096653 -0.048558 -0.31066 -0.32815 -0.21082 -0.055374 -0.31882 0.34422 0.17592 0.25563 -0.14945 -0.22247 -0.40295 -0.026977 -0.3545 -0.046251 -0.047974 -0.5121 0.41011 0.20865 -0.043247 -0.18686 -0.0345 0.22544 -0.32913 -0.0062338 0.23186 -0.19125 -0.24979 0.34324 -0.15521 0.18588 -0.17023 0.22092 0.22735 -0.020953 0.33961 0.23143 -0.12645 -0.22934 -0.0023693 -0.011971 -0.20384 -0.0053133 -0.12129 0.65213 -0.27244 -0.092458 -0.0074272 -0.13972 0.10885 -0.27311 0.045909 -0.41781 0.54619 -0.39157 -0.32642 -0.094254 0.025959 -0.6163 -0.2471 -0.18059 -0.40782 -0.28687 -0.31607 -0.34198 -0.069837 0.19498 0.079928 0.29159 0.072264 -0.5123 -0.0093354 -0.13419 -0.30492 -0.14276 -0.4577 -0.035518 0.30194 -0.23954 0.15159 0.30376 0.019173 0.16766 -0.39211 0.041676 0.39386 0.26123 -0.11863 0.4888 0.02906 0.40359 -0.16129 0.31781 -0.12516 0.19473 0.16462 -0.19685 -0.084152 0.044041 -0.17395 0.050999 0.079081 -0.30074 0.21689 0.18415 0.2244 -0.85096 -0.050885 -0.27151 0.019389 0.40375 0.085074 -0.036191 0.12223 0.42933 0.1413 0.12457 0.16424 0.10668 -0.3163 0.21596 -0.13175 -0.099093 -0.26325 -0.059737 -0.20053 0.20645 -0.13765 -0.019891 -0.027393 0.046698 0.055477 -0.2329 0.31545 -0.81781 0.16028 0.2489 -0.23095 -0.33688 0.2483 0.23674 0.12459 0.17785 -0.066541 0.18418 -0.012781 -0.19187 -0.039706 -0.017455 0.11646 0.36906 0.050935 0.003624 0.14864 0.16557 -0.1575 0.46354 -0.53013 -0.12753 0.29381 0.36216 -0.38209 1.3191 0.1898 0.44851 0.16735 0.11295 0.041102 -0.0342 0.12371 0.20661 -0.34317 -0.55083 -0.22969 0.13681 0.16052 0.042349 -0.045451 0.18684 0.35816 -0.13092 0.064683 0.14037 -0.018886 -0.17036 0.033649 0.070695 -0.18836 0.24757 0.010185 0.11566 -0.1497 0.17524 0.071462 0.040232 -0.47853 0.12848 0.078473 -0.17651 0.14349 0.056427 -0.21569 0.078041 -0.024369 0.34778 -0.012321 -0.81704 -0.44008 0.095869 0.60679 -0.2658 0.033405 -0.026292 -0.66316 -0.21308 0.039914 0.31295 0.014981 0.055644 -0.10823 0.22976 0.07105 -0.12451 -0.30822 -0.028216 -0.047194 0.19157 0.0010422 -0.14547 -0.094471 -0.016952 0.30352 0.10725 -0.32543 0.032492 -0.13092 0.050668 0.0029718 -2.4395 -0.23187 0.069614 -0.24551 -0.29844 0.027824 0.35755 0.13492 -0.26054 0.21382 0.60157 0.061916 -0.10477 -0.43186 -0.011722 -0.62146 0.14669 -0.17836 0.12901 -0.51668 0.19324 -0.19883 -0.061105 0.11568
long -0.25641 -0.27075 -0.01199 -0.19005 0.313 -0.17233 -0.0031517 0.084844 0.26762 -1.7217 0.32436 0.026072 -0.34414 -0.25526 0.068776 -0.12475 0.35225 0.27358 -0.028813 0.082471 -0.42021 0.01424 0.14715 0.33769 -0.2751 0.20414 0.033122 -0.83674 -0.00049338 0.19001 0.18466 0.5901 0.11409 -0.042146 -0.60599 0.38282 -0.29699 0.018367 0.13454 -0.042844 -0.072471 -0.027629 -0.13419 0.00092186 0.15629 0.31563 0.040562 0.099399 -0.07613 0.19182 0.12128 -0.29647 0.064798 -0.13498 0.28567 0.37478 -0.085977 0.1569 -0.21889 0.092998 0.40855 0.17951 0.044116 -0.038 0.1001 -0.75036 -0.032489 0.72983 0.6105 -0.10223 0.047342 0.21965 0.31523 -0.11043 0.32421 0.22274 -0.068278 0.14641 -0.42998 -0.35371 -0.33511 0.2625 0.3011 0.027439 0.34927 0.48144 0.57314 0.26045 0.38681 0.30266 0.17177 0.034342 -0.41237 -0.1143 0.10603 0.054045 -0.18369 -0.03321 0.32247 0.053605 -0.00094043 0.081666 -0.25085 -0.19747 -0.31297 0.11605 0.55269 0.033002 -0.28465 -0.1561 -0.32809 0.054203 0.25571 -0.30114 0.2051 -0.12533 -0.22032 -0.098418 0.37318 -0.36371 -0.28306 -0.76402 0.16477 -0.053798 0.51409 0.35034 0.03813 0.26236 -0.11447 0.055059 0.35173 -0.091327 -0.54156 -0.11505 -0.06789 -0.23336 -0.02444 -0.028162 0.29162 -0.011643 -0.17057 -0.10186 0.40088 0.12598 -0.57345 -0.092941 -0.14685 0.13599 -0.050919 -0.015655 -0.0023729 0.083182 -0.068718 0.14896 0.54145 -0.21944 0.096135 -0.37495 -0.092962 0.58651 0.05212 -0.11818 0.32816 -0.15316 -0.12359 0.33614 -0.34032 -0.063666 -0.28756 -0.15386 0.19151 -0.10506 -0.97202 0.15713 -0.27212 -0.060568 -0.25591 0.55547 0.054481 0.3034 -0.020904 0.04803 0.16929 0.25028 0.1306 -0.14414 0.18268 0.42491 -0.13242 0.25557 -0.2355 0.56209 0.20139 -0.01353 -0.16106 -0.1751 -0.03276 -0.3644 0.38768 -0.092449 1.0966 0.34803 0.037166 0.048862 0.41747 0.1632 -0.46914 0.30478 0.2597 0.34828 0.59028 -0.33722 -0.2585 0.027356 0.22873 0.1853 -0.37555 0.2298 -0.19913 -0.34557 0.96345 -0.50356 0.3378 0.013252 0.13114 0.21124 0.33436 -0.42227 -0.35234 -0.12732 0.42707 0.20027 0.057739 0.15808 -0.1751 -0.10728 -0.07258 -0.20905 0.11883 0.13989 0.039013 0.083284 0.33435 -0.20482 -1.1646 -0.006154 0.30325 0.0082918 0.28095 -0.22088 0.02611 0.32931 -0.0535 -0.301 0.48663 -0.32146 -0.33392 -0.082733 0.11056 0.16486 0.12987 -0.037889 0.20048 -0.34727 -0.11576 0.66786 -0.1964 -0.019119 0.52379 0.30375 -0.078784 0.14919 -0.11044 0.20735 0.33523 -0.082056 -2.1967 -0.096832 0.032013 -0.26244 0.21748 -0.065238 -0.029171 -0.21719 -0.22064 0.18251 0.085383 0.63368 -0.19059 -0.02949 0.072847 0.27979 -0.11772 -0.051713 0.029918 0.038897 0.1098 -0.34087 -0.3813 0.13515
good -0.13602 -0.11594 -0.017078 -0.29256 0.016149 0.086472 0.0015759 0.34395 0.21661 -2.1366 0.35278 -0.23909 -0.22174 0.36413 -0.45021 0.12104 -0.15596 -0.038906 -0.0029419 0.016009 -0.1162 0.3868 0.35109 0.097426 -0.012425 -0.17864 -0.23259 -0.2696 0.041083 -0.076194 -0.23362 0.20919 -0.27264 0.054967 -1.8055 0.56348 -0.12778 0.23147 -0.005882 -0.2663 0.41187 -0.37162 -0.206 -0.19619 -0.0043945 0.12513 0.46638 0.45159 -0.15 0.0059589 0.05907 -0.4144 0.061035 -0.21117 -0.40988 0.56393 0.23021 0.2724 0.049364 0.14239 0.41841 -0.13983 0.34826 -0.10745 -0.25002 -0.32554 0.33343 -0.35617 0.20442 0.14439 -0.12686 -0.077273 -0.19667 0.10759 -0.1186 -0.25083 0.014205 0.27251 -0.23707 -0.23545 -0.15887 0.13151 0.69564 0.22766 0.18526 0.15743 -0.15018 -0.18177 -0.033527 -0.33092 -0.25205 0.50913 -0.25607 -0.53686 0.13397 0.067046 -0.094473 -0.2227 -0.31469 0.085932 -0.043032 -0.25821 -0.095062 -0.18497 0.05889 0.18972 -0.17366 0.25263 -0.54361 -0.37248 -0.046661 -0.41657 -0.0017549 -0.48404 0.4209 -0.0012749 0.0094697 -0.1338 0.072351 -0.12096 -0.07287 -0.18333 0.39652 0.11329 -0.063029 -0.0019702 0.42848 0.3179 -0.15079 0.20405 0.21828 0.026067 0.043621 0.0039224 -0.26629 -0.28312 0.050497 -0.18993 0.18996 0.29517 -0.11566 0.40967 0.22221 -0.39778 -0.33177 -0.13884 -0.16829 -0.20355 -0.27687 -0.11087 -0.67466 -0.18108 0.18512 -0.094616 0.17856 -0.066997 0.11379 -0.09338 0.5686 -0.13365 0.34636 -0.41953 0.17547 -0.024277 -0.12441 0.092129 -0.16702 -0.14285 0.31646 0.30337 0.1484 -0.0067837 -1.0509 0.22329 0.075211 0.044379 -0.085929 -0.11806 -0.16632 -0.07865 0.26374 -0.22052 0.45582 -0.15291 0.062617 -0.15588 0.082398 -0.068462 -0.24569 0.23439 -0.38633 0.24835 0.25334 -0.21189 0.0041494 -0.43762 -0.13426 -0.24583 0.14213 -0.33973 1.4643 0.16414 0.22135 0.0074099 -0.055141 -0.027403 0.032928 0.14289 -0.10049 -0.22066 -0.3038 0.060624 -0.12408 -0.54114 0.24374 0.080903 -0.078264 0.080091 0.0098551 -0.23077 0.16006 0.064075 -0.41613 0.20494 -0.18681 0.035367 0.21759 -0.087823 0.35452 0.19578 -0.15127 -0.10545 0.3565 -0.38677 -0.063172 0.31534 -0.15887 -0.31267 -0.17893 0.41952 0.23261 0.20943 0.027013 0.017388 -0.59857 -0.19622 -0.23672 0.30032 0.046926 -0.085768 0.36539 -0.52476 -0.13618 0.10868 0.46307 0.38502 0.00076317 -0.38196 0.079772 -0.041744 0.047625 -0.041018 0.17601 0.24893 -0.10753 0.31935 -0.12762 -0.35059 0.00035689 0.0093515 -0.088616 -0.32785 0.092063 -0.061405 0.29053 0.022404 -1.6879 0.26712 0.33419 -0.052533 -0.19741 0.13709 -0.054288 0.56423 0.19384 0.17229 0.29025 -0.16124 0.059489 -0.31884 -0.28343 0.064321 -0.41589 -0.070528 0.01241 -0.40208 -0.24963 -0.3376 0.070098 0.24642
best 0.089135 0.71792 0.028687 0.21612 0.034124 0.30304 -0.42817 0.15622 -0.18076 -1.1282 0.54784 0.20062 -0.15181 0.46544 -0.054341 -0.20353 -0.26804 0.15411 -0.21173 -0.44363 0.30569 0.24829 -0.068946 0.38724 0.050614 -0.22806 -0.3148 -0.18713 0.21673 -0.0047235 -0.36041 0.15657 0.042557 -0.15443 -1.8773 0.20181 0.16757 0.1049 -0.00067474 -0.21032 -0.047503 -0.14152 0.0024042 0.59204 -0.0072825 0.41661 0.39048 0.74512 -0.23753 -0.05151 0.11375 -0.5332 0.14585 -0.43397 -0.15096 0.37057 -0.37578 0.10215 -0.30315 0.1468 -0.21648 -0.090616 0.07216 0.067776 0.18897 0.029389 0.06437 -0.091849 0.13702 0.045888 0.38129 0.24803 -0.093298 -0.35688 -0.38716 -0.059494 0.15074 -0.013242 -0.015736 -0.26597 -0.22254 0.21812 0.54225 0.019718 0.10523 0.43244 -0.13793 -0.015974 -0.14082 -0.26585 0.066062 0.33444 0.28982 -0.44056 0.21983 0.29346 -0.033354 -0.31635 -0.058277 -0.61251 -0.059591 -0.089246 -0.19187 -0.12469 0.13266 -0.18566 -0.066858 0.33712 0.14557 -0.43323 0.1481 -0.11922 0.022892 -0.5066 -0.1812 -0.044806 0.10048 -0.076279 0.013744 -0.34094 0.10118 0.3172 0.12937 -0.39444 -0.11022 0.046228 -0.001203 0.31414 -0.16167 -0.16163 0.0036275 -0.22251 0.070185 -0.049844 -0.40374 0.12165 -0.21275 0.046529 -0.044592 0.85348 0.16745 0.16795 -0.05387 -0.077253 -0.3419 -0.25727 0.24485 -0.24337 -0.33466 0.045358 0.16097 -0.49061 0.28474 -0.10793 0.12074 -0.13324 -0.51598 0.3665 0.55475 0.02216 0.22632 -0.46784 -0.12578 0.098767 -0.068578 0.48398 -0.13743 0.27175 0.034604 -0.083439 0.50042 -0.052548 -1.1203 0.18893 0.15912 0.12084 -0.11615 -0.2319 -0.44031 0.14559 -0.094262 -0.48915 0.61043 0.12051 0.065014 0.061916 -0.39515 -0.39095 -0.28798 0.2133 -0.46744 0.38549 -0.24206 -0.27279 -0.16736 -0.33754 -0.37083 0.28366 -0.14323 -0.28289 1.8593 -0.2533 0.44113 -0.28811 0.089574 0.30395 -0.13833 0.38872 -0.21118 0.066907 -0.23933 -0.084581 0.32985 0.0093153 0.25846 0.13141 -0.098757 -0.087561 0.13723 -0.18379 -0.19652 -0.38555 -0.64995 0.40124 0.028263 -0.11001 -0.1655 -0.37927 -0.073433 0.25378 0.092818 -0.15243 0.20591 0.052638 -0.026903 0.40358 -0.2789 0.064899 -0.20016 0.25752 -0.033916 0.19545 0.45691 0.089337 -0.73043 -0.16331 -0.091045 0.60318 -0.42491 0.22805 0.36604 -0.50363 -0.21759 0.28006 0.43258 -0.28328 0.19919 0.14998 0.074283 0.24716 0.22811 -0.40675 -0.16393 -0.27109 -0.019292 0.19336 -0.2798 0.11694 0.57427 0.10846 -0.10316 -0.27668 0.14971 0.22568 0.020152 -0.047752 -1.4517 -0.044106 -0.024748 -0.16433 -0.12493 -0.30684 -0.18641 0.52973 0.10999 0.17692 -0.040434 -0.18631 0.067687 0.12525 -0.054855 -0.070403 -0.10625 -0.17301 0.10985 -0.067792 -0.30292 -0.28714 -0.19313 0.13237
children -0.689 0.034258 -0.067137 -0.0027969 -0.20988 0.71403 -0.33182 0.171 -0.010727 -1.1886 -0.075927 -0.018221 -0.24181 0.18178 -0.058165 -0.27307 -0.17402 -0.50823 0.43552 -0.34934 -0.25552 0.37888 -0.32367 0.22709 0.056121 0.51859 -0.05169 0.21805 0.16776 -0.3052 -0.053535 0.63098 0.21211 0.13156 -0.3845 0.017415 0.0917 0.12357 0.5494 -0.33057 0.7259 -0.53969 -0.010201 -0.20506 -0.48977 0.40114 0.0082785 0.15169 -0.012838 -0.48278 0.091653 -0.39223 0.27855 -0.24747 -0.41889 -0.21102 0.22395 0.32127 0.24502 -0.32684 -0.13145 0.10569 0.82388 0.056683 0.25479 -0.34832 0.1547 -0.10756 -1.1456 -0.20487 -0.1803 -0.47537 -0.32813 -0.36172 0.52836 -0.74853 0.4158 0.33679 0.36549 -0.11398 0.22694 -0.61018 0.4707 0.04555 -0.49845 -0.054765 0.0719 -0.15443 0.015542 0.21907 -0.26095 -0.025169 -0.59389 0.80398 0.086314 0.06694 0.056195 -0.10685 -0.17702 -0.2294 0.84003 -0.42587 -0.13956 -0.067295 0.32029 -0.28616 0.40892 -0.030891 0.13348 -0.25972 -0.015468 -0.1101 0.11084 0.19837 0.081733 -0.019747 0.038068 0.64093 0.060893 0.035317 -0.29489 0.28794 0.087331 0.3705 -0.1384 -0.32677 -0.036881 -0.3579 0.41723 -0.22186 0.10634 -0.068819 0.1325 0.51987 -0.044618 0.25879 0.016293 -0.080491 -0.21996 0.56246 -0.072197 0.026998 0.022041 -0.040588 0.054049 0.052598 0.67575 0.10549 0.30455 0.14402 0.13165 0.018167 0.24169 0.22469 -0.23084 0.267 -0.44534 0.032147 0.4091 -0.095723 0.51581 -0.12956 0.36131 -0.39574 -0.31784 -0.0080273 0.096942 0.12162 -0.064566 -0.082185 0.22699 0.37407 -0.89853 0.7818 -0.29907 -0.052975 -0.10222 -0.027901 -0.4346 0.69665 -0.45721 -0.17031 0.092611 -0.10411 -0.070583 0.65254 -0.36363 -0.58481 0.4117 0.1555 -0.24859 -0.33773 -0.072983 0.10542 -0.11214 0.37167 0.25179 -0.002495 0.037414 -0.20752 0.75274 0.57525 0.21797 0.2129 0.58521 0.23724 0.25503 -0.12254 -0.3241 0.014105 -0.35598 -0.39984 -0.42026 0.0063845 0.34761 -0.0044801 0.12144 -0.068926 0.043435 -0.22992 0.36475 -0.29901 -0.52977 -0.37459 -0.21377 0.27052 0.98959 -0.11921 -0.023665 -0.15564 -0.1584 -0.11871 -0.52397 -0.15957 -0.1697 0.42082 0.068523 0.84706 -0.66886 -0.36013 0.11519 -0.35378 0.67375 0.10764 -0.91781 -0.13634 0.26503 -0.19327 -0.054234 0.52854 -0.5518 0.30126 -0.051088 -0.23541 0.96065 0.47647 0.095373 -0.32224 0.25661 0.39649 0.1367 -0.75219 -0.0070676 -0.040889 0.050526 0.18785 0.19293 -0.00508 -0.13225 0.52882 -0.36216 -0.40966 0.41721 -0.49767 0.084053 -0.59213 -2.8451 0.10181 -0.041822 0.76884 0.12768 0.14917 -0.25692 -0.34274 -0.41115 0.75074 0.16189 0.75195 -0.17574 0.20035 -0.2142 -0.68608 0.085865 -0.14934 -0.028683 -0.46913 0.1585 0.081292 -0.21802 -0.10528
man -0.29784 -0.13255 -0.14505 -0.22752 -0.027429 0.11005 -0.039245 -0.0089607 -0.18866 -1.1213 0.34793 -0.30056 -0.50103 -0.031383 -0.032185 0.018318 -0.090429 -0.14427 -0.14306 -0.057477 -0.020931 0.56276 -0.018557 0.15168 -0.25586 -0.081564 0.2803 -0.10585 -0.16777 0.21814 -0.11845 0.56475 -0.12645 -0.062461 -0.68043 0.10507 0.24793 -0.20249 -0.30726 0.42815 0.38378 -0.19371 -0.075951 -0.058287 -0.067195 0.2192 0.56116 -0.28156 -0.13705 0.45754 -0.14671 -0.18562 -0.074146 0.60737 0.07952 0.41023 0.18377 -0.08532 0.43795 -0.34727 0.2077 0.50454 0.40244 0.1095 -0.48078 -0.22372 -0.54619 -0.20782 0.13751 -0.16206 -0.24835 0.17124 0.037355 0.14547 -0.056205 0.2644 -0.38029 0.0029947 0.051608 0.21807 -0.071087 0.31543 0.24593 0.34444 -0.36354 -0.12137 -0.013511 0.049564 0.031386 0.10316 -0.44301 0.11663 -0.055576 -0.091434 -0.070799 -0.017031 0.046024 0.096063 0.10148 -0.33467 -0.043516 0.38271 0.018411 0.0049479 0.35587 0.40432 0.4823 0.12416 -0.051926 -0.081769 -0.21542 0.71766 -0.0052553 -0.55428 0.68033 0.20255 -0.19927 -0.11563 0.0030103 -0.74399 -0.21086 0.069584 -0.20315 -0.17027 -0.11292 -0.044594 -0.2145 0.26097 0.36969 -0.65155 0.048649 0.044304 -0.26604 0.23976 -0.38281 -0.02353 -0.020519 -0.52202 -0.30595 0.088525 0.28395 0.15056 0.23202 0.30538 -0.53674 0.21362 0.10999 0.4685 -0.60017 -0.13141 0.18707 0.11636 0.24703 0.17168 0.40658 -0.19039 0.033278 -0.26374 0.28722 0.27659 0.30153 -0.12622 0.5225 0.13887 -0.15012 -0.0038264 -0.074287 0.46348 0.26215 -0.62671 0.21841 -0.26531 -0.75294 -0.36826 0.072989 -0.071807 0.10612 -0.087064 -0.053871 0.22379 0.38538 0.053972 0.21208 0.39662 -0.38609 -0.53 -0.34169 0.067624 0.11835 0.60372 0.21744 -0.12806 0.13802 0.22463 -0.21566 -0.25167 -0.44859 -0.39111 -0.5259 0.21266 1.9729 0.13851 0.32966 0.047626 -0.37787 -0.31769 -0.1283 0.34396 -0.11061 -0.23346 -0.45134 0.1605 -0.32801 0.033373 0.42571 0.42283 -0.16932 0.14068 0.14087 0.20856 -0.24912 0.38337 0.43722 -0.090575 0.021208 -0.22334 -0.42596 -0.47252 -0.1995 0.32459 0.39765 -0.091573 -0.073528 -0.20074 0.22083 0.011314 0.11977 -0.14888 -0.27152 0.28908 0.20407 0.098377 -0.1424 -0.059699 0.032529 -0.1877 0.24643 -0.1128 0.14666 0.076001 0.31109 -0.22119 0.033051 0.066731 1.5449 -0.11096 0.26438 0.1791 0.039628 -0.46497 0.40052 -0.057004 0.11391 0.42397 -0.57411 0.17205 0.44401 -0.030134 -0.22061 0.47222 -0.12734 -0.12288 0.33832 0.41698 0.18355 0.093473 -1.9373 0.053236 -0.10361 0.056681 -0.12726 -0.11681 0.55039 0.33644 0.27706 0.71184 -0.1304 0.26108 -0.2481 0.0032735 -0.16505 0.11827 -0.26322 -0.10169 0.24275 0.16927 -0.15809 0.27613 -0.2832 0.50554
run 0.35216 0.38333 0.0468 0.50003 0.22831 0.3578 0.044829 -0.27321 0.41962 -1.3799 0.26076 0.36909 -0.43536 -0.52438 0.26148 0.2458 0.0074987 0.10731 0.4858 -0.065838 0.056594 -0.3465 0.31904 0.06426 0.46697 -0.42286 0.14177 0.2411 -0.36626 -0.11118 0.14839 0.010081 0.44444 -0.26218 -0.93248 0.068563 -0.69698 0.36694 -0.25575 -0.0037418 -0.32738 0.34744 0.2482 -0.20094 -0.031325 0.034672 0.035624 0.45276 0.16722 -0.12189 -0.70061 0.12573 0.34855 -0.17619 0.31662 -0.047234 0.16856 0.35319 -0.69002 0.14142 0.36492 -0.035834 -0.4411 -0.36706 0.26792 -0.047726 0.49569 -0.14784 0.24962 0.0056185 -0.0086915 0.31798 -0.17999 -0.0088948 0.098197 -0.43777 0.30385 0.42119 0.03585 -0.082381 -0.22865 -0.19376 0.015194 -0.071385 0.074646 0.19549 -0.39695 0.090535 0.788 0.10263 -0.026417 0.45239 -0.5672 -0.23077 -0.11716 -0.03166 -0.26274 0.2539 0.041219 -0.26054 0.13729 0.10225 0.19884 -0.26454 0.18615 -0.067057 0.26757 -0.094916 -0.29572 0.4346 -0.54311 -0.77276 -0.13168 0.12937 0.40998 0.36713 -0.54944 0.12517 0.54183 0.0096526 -0.34442 -0.0044578 0.34295 -0.58093 0.5856 -0.31735 0.57213 0.44621 -0.22946 0.24132 0.070609 0.36421 -0.22327 0.31404 0.085092 0.15702 0.039979 -0.20748 0.34623 0.12508 -0.15623 -0.55293 0.095082 0.015753 -0.36862 0.16584 -0.29904 0.089233 0.077961 0.43059 1.0536 0.1668 -0.12931 -0.39178 0.18511 0.033325 -0.057067 0.14687 0.38384 -0.19022 -0.37944 0.037965 -0.20765 -0.19668 -0.49771 0.10039 -0.50247 -0.10496 0.055817 0.025791 0.13653 -0.41305 -0.58327 -0.30428 -0.11014 0.51658 -0.14899 0.077933 -0.12912 0.58024 0.37512 0.73254 0.67824 0.27111 0.010652 0.34121 -0.35626 -0.15192 0.20906 0.024796 -0.24582 0.38677 -0.15988 0.18035 0.15215 0.10978 -0.36673 0.11143 0.16734 0.36 1.3428 0.33231 0.088945 -0.14789 0.26511 0.31958 -0.33687 -0.18297 -0.12587 -0.59059 -0.39362 -0.18294 -0.12006 -0.16491 0.042426 -0.16068 -0.26481 -0.071884 0.095193 0.28986 0.11278 -0.11677 -0.54501 -0.032224 0.12727 -0.38888 -0.14085 0.089924 -0.20575 0.22174 -0.3651 -0.30992 -0.23391 -0.60567 -0.11556 0.39953 0.13186 0.42868 -0.10004 -0.27477 0.15914 -0.11351 -0.23971 -0.28985 -0.76952 -0.03831 0.27711 0.48942 0.034659 0.051052 0.35766 0.28588 0.041583 -0.33125 0.78166 -0.70896 -0.26187 0.1535 -0.044181 -0.14081 0.22467 -0.50795 -0.47969 -0.024584 -0.25786 -0.03942 0.18455 -0.3018 0.65083 0.17546 0.0072795 -0.13736 -0.043169 0.32725 0.012145 -0.096351 -2.152 0.22934 -0.36278 0.35829 -0.17488 0.02711 0.32273 0.43837 -0.30878 0.16927 0.4061 -0.0011978 0.09548 -0.080165 -0.044444 0.14861 -0.45653 0.10475 -0.30313 0.44122 -0.061261 -0.72434 0.10764 0.84626
french -0.0701 0.31496 -0.28449 -0.3298 -0.2492 0.15972 -0.43294 -0.39028 -0.059389 -1.6952 0.05086 -0.14168 -0.049619 0.10782 0.35945 0.17727 0.034088 0.51791 0.31106 -0.0887 -0.46011 0.48857 0.39888 0.15315 -0.19499 -0.19422 0.55287 0.00087075 0.50025 0.99038 -0.77559 -0.13823 -0.41786 0.3915 -0.76927 -0.49974 0.51261 -0.26859 0.21271 0.10738 -0.34687 -0.42766 0.52165 -0.33761 -0.24053 0.081489 -0.041957 0.66611 -0.74553 0.03495 0.36792 -0.27348 0.86857 -0.016783 0.040171 0.004082 -0.15685 0.037634 0.8539 0.10812 0.044803 -0.077661 -0.027669 -0.13432 -0.73458 -0.61551 -0.10693 -0.17433 -0.63844 -0.49906 0.20659 -0.015746 -0.49394 0.14826 -0.45778 0.33002 0.78519 0.22549 -0.7763 -0.03402 -0.09659 0.13938 0.52921 0.6963 0.029396 -0.39743 0.31759 0.24251 -0.34953 -0.28117 -0.0012365 -0.28431 0.31383 0.21001 0.36029 0.27438 -0.010646 0.46002 -0.42417 -0.041345 -0.17169 0.22711 0.44706 -0.57869 0.34984 -0.091349 -0.89693 -0.63113 0.44171 0.43776 0.59016 0.088828 0.32215 -0.83248 0.25814 -0.069818 -0.21073 0.5342 0.30334 0.028796 0.021246 0.28656 -0.099166 -0.46142 -0.39292 -0.028613 -0.14124 0.36742 0.0031635 0.68791 0.27659 0.06442 -0.25229 -0.76884 0.02628 -0.18828 0.64793 -0.44362 0.20549 -0.35201 0.0636 -0.17267 0.028003 0.24328 0.10567 -0.37818 0.070373 -0.35385 -0.23033 1.0053 1.016 -0.27691 0.10161 -0.0078412 0.91011 -0.14201 -0.92266 -0.14029 -0.15972 -0.62803 0.34157 0.23818 -0.21664 0.17318 -0.2245 0.54196 0.040798 -0.44213 0.085356 0.20014 -0.035272 -0.088882 -0.39363 -0.49697 0.033173 0.21354 -0.44807 -0.24514 -0.1874 0.63476 0.40727 -0.082585 -0.040262 -0.049382 0.45366 -0.23261 -0.90439 0.67497 -0.054578 -0.39238 -0.2537 -0.14163 0.14378 -0.14362 0.47381 -0.67192 -0.43249 -0.10023 0.016521 0.16758 0.9285 -0.15989 -0.28703 -0.18983 0.30576 -0.69771 -0.836 0.1801 -0.14862 0.33165 0.13758 0.18901 -0.019417 -0.0072715 0.70752 0.27563 0.65206 -0.38325 0.61268 0.076362 0.80591 0.22368 -0.08057 -0.50261 -0.57725 -0.0916 0.46309 0.20147 0.028809 -0.12287 0.70844 0.40371 -0.69215 0.61336 0.44759 0.62496 0.0393 0.59851 -0.2764 -0.20708 0.16788 -0.22083 0.64451 -0.55731 0.43916 0.49155 -0.45351 -0.47292 -0.036356 -0.25472 0.48049 0.49904 0.97692 0.28171 0.43664 -0.077851 -0.11235 0.049412 -0.26512 0.042818 0.22412 -0.27776 -0.5342 0.83806 0.61048 0.23891 -0.42514 0.2928 0.058948 -0.30374 0.29927 -0.11578 -0.228 -0.57407 0.17125 0.63086 -1.5892 -0.23829 0.032005 -0.11874 0.62547 0.15976 0.2958 -0.44947 0.49347 0.35202 0.3242 -0.17863 -0.065608 0.44781 0.20527 -0.3053 -0.28364 -0.16074 0.35695 0.3872 -0.31584 0.28047 -0.21627 -0.23398
small -0.43299 0.3283 -0.094275 -0.74577 0.097294 0.30343 0.24456 0.23424 0.11644 -1.3854 -0.20632 0.33973 -0.053957 0.31498 0.11494 0.29251 -0.26184 -0.031321 0.051073 -0.35136 -0.068788 0.27995 0.66134 0.49038 -0.46781 -0.090045 -0.20377 -0.032092 -0.28013 0.34487 -0.15877 0.46025 -0.35421 0.4901 -0.30408 0.497 -0.09776 0.18096 -0.078735 0.043619 -0.035727 -0.055472 0.52865 0.36847 0.058002 -0.032853 0.44681 0.10571 0.23 0.54184 0.40109 0.27132 0.26067 0.16484 -0.1965 -0.067482 -0.69092 0.052957 0.71007 0.01301 0.31779 -0.3535 0.47409 0.06042 0.29609 -0.080971 -0.040223 0.31086 -0.059048 0.089527 -0.023671 -0.0031117 0.48292 0.25221 -0.49055 0.015609 -0.21219 -0.26254 0.10606 -0.54849 -0.079454 0.38384 -0.13757 0.22812 0.49773 0.24303 0.2578 -0.10301 -0.47559 -0.12228 0.58216 0.28679 -0.24309 -0.048456 0.2812 -0.23229 0.31413 0.096975 -0.21616 0.11934 0.14158 0.12211 -0.24723 -0.56947 -0.65794 0.089153 0.21462 -0.34932 0.17141 0.091154 -0.55764 -0.10458 0.010656 -0.096524 0.085704 0.06461 -0.068728 0.18041 0.15595 0.12814 0.016452 0.001655 0.41456 -0.021214 0.07386 0.21316 0.029834 0.24059 -0.051654 -0.10135 0.034422 -0.19056 -0.021823 0.13194 0.48944 -0.05035 0.31114 -0.072967 -0.082687 -0.35334 -0.013308 0.24941 -0.13372 0.16167 -0.5195 -0.087009 0.2179 0.25386 -0.073476 0.16088 -0.059382 -0.50249 -0.15807 -0.16757 0.44968 0.22458 0.19195 0.33002 -0.033566 -0.22207 0.15534 0.069113 0.26469 -0.0051834 -0.20115 -0.22659 -0.12001 -0.07406 0.055871 -0.043792 -0.066209 -0.47115 -0.27074 0.17173 -0.25237 -0.26578 -0.28926 -0.0062596 0.49771 0.048775 0.32303 -0.12185 0.21246 -0.068896 0.37686 -0.49708 0.15416 0.17898 0.18014 -0.10665 0.42314 0.48977 0.12411 0.17776 0.19731 0.50339 0.021515 -0.19975 -0.19695 -0.28275 0.69624 0.016805 -0.28103 0.22848 0.12902 -0.29393 -0.38387 0.071186 -0.048307 -0.090567 0.28124 0.07757 -0.066275 -0.20985 0.1243 0.086875 0.44581 -0.022417 -0.42191 0.19197 0.45082 0.11105 -0.49147 -0.09086 0.1381 0.0023229 0.021261 -0.22926 0.07124 -0.095339 0.082059 -0.50062 -0.30259 0.061177 0.45983 0.47468 0.091748 0.22264 -0.37203 0.10786 0.3549 0.2104 0.19999 0.076104 -1.3045 -0.57747 0.519 0.068469 -0.38347 -0.12574 0.047811 -0.21214 -0.24007 -0.26386 0.50679 0.6416 -0.17551 -0.2036 -0.22474 0.22709 0.20689 0.08132 0.28826 0.15282 0.19622 -0.3567 -0.25604 0.21318 -0.14043 0.51106 -0.13195 0.17747 -0.123 0.1998 -0.20783 0.34355 -2.4089 0.34228 -0.39874 0.28494 -0.5406 0.54631 -0.1495 0.016375 -0.30254 0.29325 -0.072363 0.19331 0.44071 0.31411 -0.063125 -0.28707 -0.16933 -0.15032 -0.30977 0.81411 -0.25677 -0.19407 -0.11114 -0.058074
big 0.053202 0.32654 -0.01127 -0.082123 0.071037 0.44781 0.044859 0.4138 -0.27196 -0.89759 -0.13761 0.13004 -0.075357 0.38629 0.17758 -0.29943 -0.19235 -0.30964 0.32962 0.086086 0.52474 0.63456 0.48114 0.41667 -0.26752 0.28658 -0.026327 -0.54687 0.19495 -0.17815 -0.39229 -0.0904 -0.34012 0.2212 -1.6101 0.38802 -0.24336 -0.1756 -0.20712 0.20394 -0.025578 -0.45187 0.33415 0.27383 -0.39909 0.16407 0.46706 -0.44217 -0.084489 0.25391 0.59938 0.11946 -0.10521 -0.14147 -0.45396 0.26155 -0.56754 0.15196 0.31752 -0.021125 0.30054 -0.088797 -0.092661 0.12387 0.2305 -0.012303 -0.059526 0.1079 -0.068127 -0.029459 -0.0077968 0.41705 -0.1004 0.12982 -0.013223 -0.11526 -0.065731 0.054774 0.020605 -0.52391 -0.089419 0.051287 0.21643 -0.31757 0.62864 0.30463 0.011931 0.30312 -0.048976 -0.5659 0.23477 0.28488 -0.24284 -0.11837 -0.22553 -0.14001 -0.19238 -0.2248 -0.061711 -0.23125 -0.079984 0.12241 -0.36515 -0.22947 0.0078941 0.14803 -0.12649 0.028246 -0.41702 -0.11158 -0.4991 -0.56353 -0.46138 -0.018227 0.55521 0.078952 0.14393 0.37751 0.04695 -0.5343 0.11517 -0.2723 0.22937 0.17617 0.31728 -0.078928 -0.0055615 0.14917 -0.17789 -0.30649 0.29659 0.47704 -0.55835 0.035082 0.17096 -0.25288 0.05156 -0.056329 0.04223 0.038741 -0.080193 0.13952 0.70648 0.11988 -0.3275 -0.0087163 0.10524 0.31645 -0.071287 0.22948 0.15596 0.36893 -0.21014 -0.029139 0.46407 -0.078003 0.12458 -0.069225 -0.58424 -0.078226 0.082829 0.18654 0.17078 0.16484 -0.12538 0.014431 0.044243 0.24854 -0.012925 0.0042898 0.083215 -0.20077 -0.72477 -0.20139 0.041344 -0.097364 -0.081314 0.056293 0.37262 0.4256 0.45101 0.074838 0.46719 0.139 -0.18487 -0.22201 -0.06436 0.091974 0.11689 -0.23366 0.12914 0.12386 -0.129 -0.044109 0.39721 -0.061978 0.038883 0.11275 0.37979 0.13575 1.8973 -0.29059 0.072478 -0.22316 -0.42648 -0.12234 -0.30966 0.4026 0.018576 -0.44676 -0.64271 0.1612 -0.096531 -0.066292 0.28503 0.28944 0.20129 0.38182 0.086765 -0.32541 0.22295 0.057072 0.24878 -0.016025 0.14448 -0.05527 -0.10185 0.13745 0.015056 -0.050501 0.078285 -0.10455 -0.32698 -0.21523 0.069816 0.10553 0.15315 0.0013057 -0.026675 -0.18643 0.25311 0.20835 0.050941 -0.076221 -1.174 -0.53818 -0.20022 0.18137 0.028364 -0.32037 -0.010306 -0.13441 -0.15794 0.052013 0.13071 -0.18834 -0.34213 -0.15006 -0.36625 0.051873 0.26475 -0.33269 0.53389 0.37694 0.29248 -0.26069 -0.29506 -0.27485 0.26808 0.54107 0.20729 -0.25498 -0.23753 -0.06964 0.12649 -0.052191 -1.9453 0.19465 -0.30956 0.14595 -0.55976 0.58851 0.0029796 0.53247 -0.11014 0.10197 -0.19553 -0.051859 0.37775 -0.20514 0.067855 0.10475 -0.048275 0.15864 -0.0042757 0.18459 0.0096166 -0.39005 -0.1441 0.42055
cup 0.2853 1.1604 0.43643 -0.79668 0.23233 0.22757 -0.27564 0.26498 0.023262 -0.46187 1.0063 -0.10185 0.12593 -0.020709 -0.91027 0.50722 -0.20742 0.3516 -0.57072 -0.46228 0.067776 -0.60861 -0.28019 0.0084597 -0.96253 -0.72114 -0.35653 0.73386 -0.76149 -0.4418 -0.67738 -0.37454 0.39863 -0.067284 -1.8498 0.68255 0.55923 0.38049 -0.011131 -0.29923 -0.13439 -0.66876 0.44993 -0.24541 0.66881 -0.16055 -0.192 0.77019 -0.14898 0.13029 -0.17713 0.41051 -0.17535 0.45315 -0.20813 1.1535 -0.028449 -0.11565 0.8639 0.16563 -0.42576 0.48639 -0.81553 -0.46676 0.0024678 -0.080823 -0.34134 0.2558 0.28274 -0.93934 0.084133 0.41559 -0.34715 0.075209 -1.053 0.16022 0.57484 -0.73144 -0.5188 -0.0010427 -0.20773 0.19792 -0.2249 0.0146 -0.24591 -0.55164 -0.55517 -0.25533 0.35597 0.037868 0.29384 -0.32517 0.59217 -0.8257 0.12662 0.34547 0.40732 0.16164 -0.24598 -0.27376 0.69831 0.52995 0.61227 -0.52018 -0.21611 0.41228 0.33894 -0.20567 -0.77231 0.35031 0.49462 -0.037678 0.19305 -0.58204 -0.40802 -0.71015 -0.42189 -0.010852 0.25941 -0.58284 -0.5853 -0.33403 0.82914 -0.50926 0.33638 0.70237 -0.55605 -0.46317 -0.50367 0.95343 -0.31 1.0283 -0.15086 0.47539 -0.058367 0.17502 0.39958 0.30438 -0.89135 0.14009 0.53989 0.32184 -0.17468 0.54296 -0.18855 -0.41389 -0.085185 -0.048573 0.19943 -0.030215 0.073024 0.57384 -0.12603 0.12976 0.23277 -0.61188 -0.81838 -0.40354 -0.15092 0.13556 0.059412 0.063882 -0.18439 -0.034213 0.2401 0.23676 -0.11862 0.21139 0.13449 -0.6916 0.63003 0.47592 -0.80335 -0.36965 -0.39664 -0.08252 0.12224 -0.47266 0.44712 1.4268 -0.21617 0.2422 0.85212 -0.47456 0.18944 -0.46897 -0.46172 0.17428 0.22709 -0.49439 1.0814 0.59221 0.46875 0.2641 -0.37066 -0.11895 0.98609 -0.24899 0.31108 0.24488 2.4071 -0.1926 -0.28679 -0.68879 0.38207 -0.5294 0.6217 -0.37949 -0.16647 -0.33112 0.14067 -0.039168 -0.15921 0.020751 0.067745 -0.40599 0.11435 -0.82253 -0.067925 -0.60754 0.37455 -0.25916 -0.35349 -0.13939 -0.24969 -0.62065 0.22201 -0.068314 -0.78246 0.26541 -0.55596 0.39105 0.007787 -0.23908 0.91554 0.25126 -0.11295 0.59261 -0.036863 0.19107 -0.018507 -0.38583 -0.094539 0.011538 -0.21448 -0.0033476 -0.2413 0.5137 0.16778 -0.67994 0.36503 -0.013352 -0.060538 -0.015175 -0.82886 -0.55515 0.39338 -0.57883 0.24877 0.64317 -0.0498 -0.2249 0.10157 0.34393 0.18026 -0.16555 -0.43312 -0.90053 -0.31166 -0.035667 0.22476 0.5387 0.19424 0.53535 0.38113 0.32646 -1.3502 0.26764 0.38671 -0.50099 -0.080637 -0.048833 0.46068 -0.1358 0.35048 -0.14744 0.18264 -0.68311 -0.5534 0.17641 -0.51124 0.44536 -0.39929 0.15475 0.85655 -0.22964 0.13523 -0.39542 0.1836 0.24845
france -0.055966 0.33098 -0.48706 -0.63245 0.072906 0.54625 -0.040818 -0.068302 0.017669 -1.7192 0.63679 -0.14927 0.21591 -0.45068 0.30043 0.21499 -0.07414 0.55876 0.10662 0.28551 -0.3689 0.72203 0.15396 0.11345 -0.60126 -0.57111 0.41505 -0.20347 0.16531 0.63124 -0.77005 -0.3026 -0.50839 0.55926 -1.038 -0.68186 0.57905 -0.42094 -0.3888 -0.19517 -0.43155 -0.31099 0.36055 -0.39106 -0.58718 -0.15774 0.13408 0.75595 0.16151 -0.37458 0.10214 0.12893 0.9727 -0.58133 0.44972 0.02003 -0.35883 -0.063266 0.47629 -0.40336 -0.37269 0.56424 -0.52578 -0.24461 -0.7874 -0.81476 0.31068 0.055933 -0.37837 -0.26595 -0.07701 -0.20037 -0.15868 -0.09022 -0.21265 -0.018562 -0.018781 0.144 -0.72747 -0.039233 -0.10749 0.037988 0.15168 0.71152 -0.23795 0.064947 0.31126 0.069939 -0.46109 -0.4581 0.33955 -0.47408 0.44543 -0.2303 0.26445 -0.14113 -0.2452 0.65596 -0.35718 0.078136 -0.43686 0.072648 0.33366 -0.2097 0.52535 0.063034 -0.26364 0.33701 -0.15457 0.47752 0.3591 -0.25345 0.37681 -0.64692 -0.055199 -0.35584 0.055432 0.71769 0.19166 0.10678 -0.30252 -0.021128 -0.051167 -0.55438 -0.1986 0.62892 -0.63701 0.28693 0.27626 0.34279 0.47562 -0.065373 -0.064048 -0.41519 -0.35064 -0.40783 0.45085 -0.50531 0.27776 -0.43899 -0.16439 -0.25692 -0.0053715 -0.039016 -0.091245 -0.44833 -0.28659 -0.81737 -0.057906 0.41293 0.62307 -0.35825 0.062524 0.027088 0.3294 0.083387 -0.4397 -0.0043705 -0.65431 -0.18451 0.12614 -0.011859 -0.3374 0.027249 0.42567 0.54902 0.029459 -0.67886 -0.25666 0.37696 0.22621 0.35936 0.064466 -0.83238 -0.26073 0.39573 -0.18747 -0.37337 -0.28883 1.1036 -0.13651 0.1114 0.044952 -0.33704 0.75452 -0.16587 -1.3352 0.67671 -0.5944 -0.30932 -0.37772 0.00046474 0.15142 -0.38775 -0.099708 -0.94751 -0.11036 0.11209 0.29644 0.18328 1.2896 -0.20671 -0.65376 -0.16972 0.57084 -0.0060047 -1.0059 0.16858 -0.53043 -0.12424 -0.08961 0.4576 -0.1454 0.35346 0.30197 0.23056 0.28004 -0.69333 0.54768 -0.29636 0.55402 0.18283 -0.038603 -0.64959 -0.32164 -0.050521 0.66065 0.21459 -0.11346 0.13104 -0.16482 -0.27077 -0.37089 0.26073 0.32221 0.33063 0.029957 0.70487 0.37762 -0.15694 -0.43349 -0.060576 0.62632 -0.40047 0.67239 0.040707 0.079469 -0.52537 -0.0022598 -0.32231 0.1241 0.20315 0.72522 0.43114 -0.1091 -0.1631 -0.35959 -0.35122 -0.43144 -0.1875 0.83869 0.085325 -0.23705 1.1001 0.38692 0.37339 -0.72893 -0.10522 0.13405 0.047224 0.31673 0.34673 -0.35407 -0.17806 -0.10423 0.20275 -1.6813 -0.48924 0.64335 0.19622 0.66399 0.18485 -0.15111 -0.29832 0.31045 0.48917 0.33887 0.76722 -0.134 0.55847 0.4451 -0.096998 0.09862 -0.19646 0.40751 0.43885 0.20325 -0.11074 0.23883 -0.65954
got 0.066296 -0.20921 -0.45986 0.22468 0.19059 -0.13116 -0.16312 -0.064006 0.12238 -1.1635 0.2013 -0.23963 -0.19171 0.26098 -0.2884 0.29123 -0.24659 0.04551 0.11559 0.30727 0.11443 0.41818 0.12166 -0.46051 -0.53375 -0.1292 0.22121 -0.29713 0.047573 -0.060891 -0.075089 -0.084566 -0.095698 0.023646 -1.9299 -0.095896 -0.070507 0.16219 0.071557 -0.036527 -0.24018 -0.3682 0.16971 -0.05882 0.44577 0.13087 0.28931 -0.23328 0.012346 -0.12078 -0.16922 -0.12929 -0.067635 0.15279 -0.45462 0.12829 0.61665 -0.14383 0.028197 -0.19536 0.09243 -0.075792 -0.1871 -0.05032 -0.21143 -0.47586 0.35852 -0.12774 0.015717 -0.45852 0.18083 0.20844 -0.1188 0.48702 0.0082762 -0.16617 -0.017944 0.0036281 0.13089 -0.035864 -0.0071323 0.16554 0.74403 -0.18242 -0.11917 0.053023 0.073539 -0.080869 -0.12012 -0.050123 0.14656 0.35417 -0.54589 -0.30721 0.061875 0.025622 -0.4896 -0.43797 -0.16834 -0.40453 -0.13319 -0.27737 -0.10356 -0.10509 0.23775 -0.21234 0.21975 0.29875 -0.73957 0.065248 -0.060454 -0.3003 -0.045402 -0.38041 0.034332 0.34371 -0.34892 0.18327 0.36797 -0.07913 0.09585 -0.61406 -0.04389 0.32569 0.22742 -0.1598 0.11591 -0.17104 0.13973 -0.17943 0.12339 -0.304 -0.12281 0.024989 -0.20473 0.034554 0.025607 -0.32328 0.1617 0.39178 -0.36814 0.39267 0.15611 0.072277 -0.61427 0.16044 -0.14707 0.0087294 0.29138 -0.091466 0.1894 0.28694 0.32948 0.22435 -0.048738 0.12948 0.21765 -0.18982 0.32576 -0.11598 -0.092467 -0.38378 -0.3172 -0.033233 0.16026 -0.23954 -0.13598 0.022603 0.19622 0.12938 -0.25265 -0.10452 -0.5285 -0.11949 0.2185 0.035183 -0.16962 0.17694 0.31575 0.094898 0.29642 0.36173 0.27819 -0.078737 -0.25338 -0.13501 -0.18352 0.084897 0.32874 0.20506 0.0071055 -0.029837 0.26742 -0.22196 0.3811 -0.68948 -0.34372 0.15357 0.20145 -0.17516 1.575 -0.10744 0.54277 0.1234 0.074975 -0.019029 0.095538 0.28662 0.039421 -0.061172 -0.59803 0.16415 -0.032267 0.035389 0.33029 -0.26263 0.093122 0.10725 -0.029148 -0.15241 0.16377 0.0022908 -0.16785 0.093443 0.26454 -0.10307 0.16855 -0.33006 0.33005 0.26879 -0.043891 -0.062159 -0.27587 -0.36183 -0.1306 0.0049751 0.022815 0.10787 0.23092 0.0090614 0.35015 0.032004 0.074932 0.094022 -0.47361 -0.62762 -0.099253 0.64929 -0.10906 -0.020584 0.0031846 -0.89381 -0.085957 0.096172 0.63276 0.21927 0.077591 -0.31428 0.10443 -0.1415 -0.43574 -0.13004 -0.18618 -0.098406 0.061398 0.14161 -0.22269 -0.23086 -0.048503 0.33096 0.001035 -0.61323 -0.0181 -0.18314 0.031785 -0.097506 -1.6599 -0.27664 -0.11227 -0.096124 -0.78517 0.2647 0.40752 -0.054433 -0.075178 0.38391 0.2313 -0.075812 0.22075 -0.23248 0.009524 -0.15028 -0.041299 0.0081296 0.022666 -0.16172 0.23431 -0.19995 0.11632 0.19158
water 0.22205 -0.32401 -0.22823 -0.8057 -0.037681 0.40476 0.67713 0.060018 0.29752 -1.7191 0.22618 -0.28069 -0.43438 -0.053767 0.19765 -0.034735 -0.6285 0.18106 0.066459 0.41742 -0.94475 0.10682 0.13101 0.3031 0.027403 -0.19389 0.091925 0.60074 -0.64156 0.38916 -0.21421 0.33863 -0.44342 0.021516 0.0087953 0.10592 0.1594 -0.25145 -0.26792 0.27198 -0.35334 -0.0028738 0.45507 0.16615 -0.078608 -0.060275 0.40578 0.44797 0.060097 0.33284 -0.32512 0.37837 -0.22607 -0.41083 -0.022587 0.8766 0.60757 0.51029 0.3576 0.70893 -0.19238 0.15464 0.40663 -0.11724 -0.54129 -0.31733 -0.54231 0.089284 -0.69831 -0.3391 0.67456 -0.3202 -0.39219 0.054287 -0.43916 0.27136 0.15253 0.43111 -0.65596 -0.30831 0.20937 -0.2838 0.065466 0.1259 0.28123 0.032616 -0.27989 -0.18884 -0.13447 -0.76948 0.26649 0.18923 0.38376 -0.054837 -0.0081286 -0.036526 0.25902 -0.25051 0.3028 0.085994 0.019023 0.038341 -0.49974 -0.4658 0.047264 0.34699 0.29005 -0.076078 -0.58472 0.13501 -0.074463 -0.76927 -0.33095 -0.026612 -0.44111 0.083463 -0.034646 0.18086 0.1304 -0.20407 -0.42887 -0.16181 -0.1352 0.058394 -0.42886 0.010763 0.29914 0.41665 -0.17066 -0.077137 0.21409 0.41838 1.0125 0.46781 -0.13963 -0.019573 0.34615 -0.032282 -0.8524 0.37133 0.34502 -0.06418 0.060025 -0.34385 -0.87621 0.034164 0.43131 0.6141 0.075966 0.2112 0.53734 0.29168 -0.16991 -0.27702 0.73844 -0.036017 0.28226 -0.63017 0.23457 0.30926 -0.15611 -0.70551 0.35882 -0.43088 -0.124 -0.50476 0.076969 0.060561 -0.33044 0.60102 0.14984 1.169 -0.38444 0.40906 -0.23013 0.06382 -0.13924 -0.13471 0.32651 -0.044087 -0.30351 0.17597 0.073728 -0.028865 -0.0022067 -0.32504 1.146 -0.091705 0.77386 -0.25334 0.60424 1.0688 -0.61204 -0.34085 -0.43105 0.13292 -0.27981 -0.39876 -0.19057 0.46372 0.39336 0.6019 0.16148 -0.25726 0.04973 -0.12303 -0.010132 -0.37664 -0.045747 0.26477 -0.47518 0.19295 -0.033506 -0.76966 0.60133 0.0020898 0.31706 -0.30544 0.25221 -0.019573 0.72195 -0.16319 0.19155 -0.037105 0.18616 -0.21656 -0.33925 -0.13998 -0.072669 -0.21923 0.51922 0.35415 -0.17232 -0.24328 0.37116 -0.065475 -0.30716 -0.42527 0.28078 0.09957 -0.47909 0.15329 -0.20141 -0.28286 -1.3442 0.10449 0.35095 -0.18157 -0.38624 0.038183 0.052763 -0.50247 0.37811 -0.72253 0.037489 -0.14437 -0.088748 -0.24035 0.10644 0.028212 -0.17391 -0.36099 -0.32632 -0.63688 -0.06133 0.155 -0.1927 0.14652 -0.34178 0.24916 -0.11614 0.39704 -0.61343 0.59993 -0.14287 0.39445 -2.5344 -0.2327 -0.17958 -0.30613 -0.40044 0.28849 0.59879 0.049949 -0.082522 0.089689 0.099965 -0.55065 0.084517 0.43938 -1.0611 0.14042 0.038066 0.14396 0.50771 -0.27812 0.049691 -0.61689 -0.026678 0.29267
germany 0.046596 0.18904 -0.46218 -0.36952 0.49638 -0.084072 -0.21817 0.10112 0.22574 -1.8982 0.4634 0.34359 0.080282 -0.17099 0.12771 -0.57395 0.3355 0.048452 0.10111 0.11154 0.74975 0.21449 0.093244 0.39629 -0.82285 -0.4786 0.15886 0.32569 -0.4413 0.47514 -0.82776 -0.0091277 -0.11681 0.31074 -0.73891 -0.93395 0.47229 0.061625 -0.23209 0.091641 -0.6454 -0.41851 -0.1191 -0.8377 -0.22462 -0.13239 0.46743 0.42136 0.085805 -0.4119 -0.12885 -0.3719 -0.074528 0.25856 0.42807 -0.10703 0.15059 -0.093651 0.00020426 0.27187 -0.77064 0.12115 -0.51601 -0.90579 0.055391 -0.41215 -0.10934 0.55614 -0.11423 -0.22789 -0.3136 0.39942 -0.17418 -0.32829 -0.018092 -0.30644 -0.60059 0.55119 -0.079793 0.40236 -0.090854 -0.32376 -0.16997 0.23463 0.75075 0.5867 -0.16544 0.089686 -0.39967 -0.048933 0.20688 0.01057 0.29394 -0.22833 0.33369 -0.41849 -0.028932 0.79906 -0.69466 -0.41362 -0.40735 -0.54909 0.04779 -0.20116 0.32808 -0.49723 0.48904 0.39019 -0.57577 0.25102 0.48658 0.079282 0.089703 -0.37535 -0.084325 0.28171 -0.50114 0.0056733 -0.079146 -0.44476 0.29921 0.088691 0.44266 -0.16471 0.081618 0.94206 -0.0056012 0.14982 0.024455 -0.42174 -0.040294 0.43824 0.046113 0.1855 -0.75827 0.058845 0.28938 -0.0095693 0.038061 -0.049673 0.10547 -0.1924 -0.025505 0.071931 0.50595 0.34814 0.15281 -0.45152 -0.43343 0.45366 0.36144 0.18477 0.008504 0.1415 0.16374 0.46635 -0.093285 0.1958 -0.3629 0.1901 -0.25292 -0.16623 0.40528 -0.32054 0.74378 1.1915 0.32155 0.047077 0.31221 -0.1781 0.73097 0.37333 -0.25939 -0.36473 -0.25395 0.29954 0.53114 -0.40312 0.24995 0.94325 0.2663 0.23605 -0.86847 -1.0634 1.0301 -0.21658 -1.1831 -0.50515 -0.096721 -0.13074 0.0060968 0.020941 0.011997 -0.084362 -0.41398 -0.37339 0.5611 -0.54758 0.087178 0.074864 1.1872 0.053332 -0.77 -0.098641 -0.43487 -0.33498 -0.67023 0.047192 -0.43604 -0.26619 -0.29983 0.19651 -0.25937 0.12411 0.076934 0.13771 -0.1147 0.37667 -0.12897 -0.21604 0.48092 -0.061375 0.095193 -0.24116 -0.40125 0.20202 0.022887 -0.34533 0.11999 -0.20539 -0.045075 -0.29034 0.42979 0.54485 0.014853 0.029321 -0.28414 0.65476 0.64791 -0.26195 -0.80182 0.50255 0.6253 -0.32873 0.52968 0.24924 0.30055 0.1714 0.16186 -0.0094696 -0.12293 -0.40749 0.51695 0.68097 -0.13849 0.099114 -0.39958 -0.56245 -0.071594 0.041159 0.51042 -0.39967 0.70918 0.092197 -0.42696 -0.11023 -0.97495 -0.31463 0.019504 -0.60017 -0.17973 -0.17978 -0.45234 0.046427 -0.26432 -0.19633 -1.5363 -0.38197 0.79408 -0.0037235 -0.1093 0.4954 -0.91031 -0.11928 0.53723 0.42657 0.29081 0.56418 -0.48337 0.55939 0.24139 0.027593 0.20519 0.3665 0.2922 0.72185 0.43242 -0.54401 0.72344 0.0443
german -0.17395 0.26118 -0.59189 -0.14095 0.14062 -0.49495 -0.48612 -0.071979 0.10639 -2.0307 -0.46734 0.32341 -0.11944 -0.016742 -0.031495 -0.49178 0.48682 -0.15504 0.33779 -0.20452 0.48576 0.10103 0.2893 0.46253 -0.40725 -0.6923 0.16989 0.72808 -0.14229 0.67551 -0.73379 -0.10438 -0.11796 0.15696 -0.6581 -0.96524 0.32639 -0.18876 0.41055 0.62418 -0.54569 -0.23929 0.065181 -0.82854 0.069211 -0.057229 0.30076 0.26005 -0.65749 -0.34341 0.063974 -0.46854 -0.18087 0.46 -0.13361 0.0041913 -0.057701 -0.093533 0.58228 0.58595 -0.32527 -0.30103 0.35268 -0.79194 -0.15899 -0.093376 -0.077436 0.10676 -0.28593 -0.12407 0.29534 0.93511 -0.58416 -0.23398 -0.24698 -0.0818 0.36007 0.61917 -0.26851 0.53649 -0.097227 -0.14087 0.19586 0.7724 0.72808 0.44705 -0.35029 0.54935 0.064385 0.4283 0.14651 0.12662 0.10615 0.2142 0.70397 -0.14882 0.0016072 0.58654 -0.86636 -0.51956 -0.43453 -0.34805 0.16552 -0.4919 0.25771 -0.88612 0.13439 -0.38058 0.014317 0.080483 0.23201 0.60993 0.089378 -0.32633 0.14364 0.36727 -0.43899 -0.17636 0.11515 -0.47288 0.66329 0.4446 0.42832 -0.11805 -0.089949 0.33134 0.38179 0.37603 -0.10743 -0.44042 -0.21666 0.43555 -0.022735 -0.068408 -0.38035 0.19759 0.40845 0.067879 0.11543 -0.19936 0.3718 -0.072772 0.016069 0.24985 0.86168 0.47872 0.23563 -0.18449 -0.65049 1.0901 0.66212 0.19728 0.14756 0.12935 0.77387 0.15848 -0.34631 -0.074845 0.050999 -0.3486 0.15659 -0.12029 0.51936 -0.25115 0.11578 1.2074 0.42456 0.19839 0.50804 -0.30093 0.7075 0.15667 -0.6497 -0.11488 0.13603 0.24427 0.28458 -0.44747 0.43852 0.6167 0.70157 0.0035303 -0.82374 -0.48174 0.94775 -0.67831 -0.88231 -0.49861 0.50275 -0.091397 -0.012349 -0.34072 0.18046 0.065591 -0.12835 -0.25328 0.065932 -0.48677 -0.083818 0.21713 0.69114 0.33494 -0.6151 -0.069582 -0.4899 -0.69394 -0.9556 0.051767 0.095095 0.095236 -0.10754 0.090183 -0.52861 -0.31845 0.37688 0.05426 0.12468 0.4493 0.08962 0.086355 0.7578 0.039877 0.11244 -0.42474 -0.51458 -0.0031076 0.071056 -0.56883 0.1988 -0.31377 0.63134 0.16723 -0.041364 1.0815 0.077185 0.32209 -0.20214 0.32813 -0.09318 -0.15522 -0.18215 0.14011 0.90279 -0.61174 0.31253 0.82058 -0.11986 -0.092769 -0.017208 0.038924 -0.062698 -0.15331 0.71784 0.57189 0.49815 0.25487 -0.24675 -0.44031 0.31783 0.021158 0.060011 -0.61616 0.48028 0.21503 -0.22138 -0.31099 -0.98128 0.10881 -0.19224 -0.59959 0.11492 -0.53358 -0.2609 -0.46823 0.019625 -0.11813 -1.0982 0.062487 0.45476 -0.11326 -0.23941 0.50498 -0.82458 -0.13456 0.59877 0.26955 0.10113 -0.29636 -0.025664 0.34384 0.082627 -0.20214 -0.48323 0.018798 0.13161 0.83052 0.018249 -0.195 0.20411 0.35298
strong -0.29801 -0.090421 -0.73553 -0.67038 0.093391 -0.29697 -0.10912 0.62126 0.24743 -2.2545 0.37469 0.17802 0.12937 0.050727 -0.26433 0.14086 -0.27977 -0.06368 -0.081453 -0.53505 0.051776 -0.22246 0.28676 0.15535 0.092029 0.015532 0.33635 -0.29565 -0.46818 0.29006 -0.47459 0.33915 -0.49916 -0.23262 -1.3811 0.26014 0.065079 0.37827 0.429 -0.00248 0.37256 0.33012 0.78806 -0.55292 0.16642 0.16884 0.12853 -0.14737 0.0081697 0.48682 0.19281 -0.083827 0.10856 -0.21689 -0.28157 0.2705 0.15239 0.21838 -0.014866 0.63254 0.23063 0.37887 0.16022 0.045379 -0.29536 -0.28072 -0.064458 0.082907 -0.19204 0.12497 -0.60033 -0.25839 -0.35685 -0.37044 0.42849 -0.37512 0.16362 -0.35815 -0.35758 0.11496 -0.070537 -0.48571 -0.035964 -0.42783 0.28579 0.13356 -0.26135 0.066793 -0.030631 -0.13317 0.42413 0.10826 -0.1486 -0.49161 -0.10544 0.21836 0.025915 0.01227 -0.47967 0.32017 -0.31563 -0.42405 -0.42764 -0.32651 -0.20268 0.52711 0.12308 -0.1615 -0.17328 -0.36971 0.29896 -0.78849 0.26725 0.36097 0.4318 0.39905 -0.24443 0.15801 0.12913 -0.69188 0.20186 -0.26269 0.2309 0.18346 -0.055541 0.14587 -0.096463 0.20114 -0.027873 -0.26551 -0.28645 0.8732 -0.72076 -0.097137 -0.30409 0.02912 0.012868 0.28156 0.85785 0.49337 -0.35854 0.236 0.40583 -0.0015137 -0.10804 -0.2781 -0.42599 -0.22911 -0.32613 -0.29749 0.53681 -0.33306 0.41246 0.28233 0.39923 0.18497 -0.12666 -0.26388 0.03084 -0.025539 0.069309 -0.023073 0.019529 0.17168 -0.36126 -0.2851 -0.15666 -0.094005 0.15544 0.37477 0.8474 -0.47084 -1.0306 -0.21761 0.39113 -0.061262 -0.069584 -0.13417 0.33997 0.32162 0.11578 -0.19582 0.40211 -0.10361 0.14405 -0.14482 -0.50223 0.37822 -0.47081 -0.10314 -0.52118 -0.24441 -0.077637 -0.11801 0.13776 -0.62653 -0.29566 -0.0073173 -0.17556 0.18744 0.79963 0.088051 0.17486 -0.02982 -0.20596 0.26943 -0.048649 0.63862 -0.083586 0.36913 -0.11308 0.073319 0.36793 -0.55681 -0.21956 0.039069 0.033727 0.15067 -0.081474 -0.349 0.093574 -0.1571 -0.32626 -0.27114 -0.33378 0.6585 -0.21159 0.12067 -0.063552 -0.11952 -0.31772 -0.31362 0.10297 -0.034787 -0.42682 -0.15091 -0.024658 -0.36441 -0.036593 0.55549 0.25788 -0.057254 -0.090011 -0.049059 -0.68187 -0.5182 0.37654 -0.096127 -0.2787 0.068877 0.1422 0.0091009 0.28719 0.28841 0.11206 0.023366 0.16823 -0.36095 0.0022167 0.56202 0.017029 0.21764 -0.19316 0.29163 -0.17169 0.031223 -0.019429 -0.14393 -0.16983 0.17898 0.085609 -0.39229 -0.58157 -0.47225 -0.19186 0.11046 -1.301 0.30475 0.38091 0.17294 0.28371 0.30293 0.15824 0.59335 -0.028425 -0.10906 0.13048 0.26893 0.3614 -0.22873 -0.22926 0.28924 -0.2117 -0.063052 0.31398 0.60155 -0.22526 -0.35639 -0.1396 0.095354
car 0.46443 0.3773 -0.21459 -0.50768 -0.24576 0.08134 0.10145 0.25155 -0.36152 -1.603 0.28219 0.36653 0.44611 0.2795 0.047722 0.30087 -0.16226 -0.026055 -0.26815 -0.46282 0.25012 0.60389 0.15111 -0.062823 -0.096755 -0.30548 -0.11376 0.53914 0.10966 -0.70618 -0.66316 0.43559 -0.048631 0.27755 -0.48685 0.11938 -0.54538 -0.29563 0.03447 0.53187 -0.001588 0.41692 -0.20742 -0.037833 0.43333 0.047521 0.83507 -0.065088 -0.29974 0.0047139 0.12339 -0.5066 0.2587 0.21264 0.19132 0.54204 -0.11385 -0.42384 -0.27808 -0.15105 -0.62104 0.27678 -0.054974 0.018479 -0.11744 0.33029 -0.35251 -0.21953 0.05514 0.16971 -0.36445 0.36383 0.20496 0.66512 -0.2254 -0.30347 -0.52782 -0.66115 0.11774 -0.14438 0.33886 0.2297 0.63072 0.76929 0.02536 -0.13685 0.084254 0.32036 -0.10431 0.7672 1.0674 0.42885 0.03032 -0.63375 0.70705 -0.17671 -0.1077 -0.31877 0.063781 -0.57507 -0.40656 0.55837 0.72376 0.2645 0.20313 -0.43949 0.53094 0.075492 -0.26951 -0.4277 -0.13859 0.28341 0.13153 -0.32371 0.22816 0.43016 -0.015529 0.13276 0.048239 -0.038536 0.013813 -0.24567 0.4658 -0.61963 -0.39568 -0.21261 0.11121 -0.19519 0.32773 -0.25276 0.87512 0.4986 0.25747 0.46459 -0.097237 0.42509 0.0080811 -0.79669 0.19793 -0.060157 0.06048 0.20092 0.46373 0.29617 -0.31812 0.12548 -0.17667 -0.29347 -0.59183 0.43081 1.0006 0.46858 0.11257 -0.56533 0.54729 -0.43424 0.22738 0.21527 0.087824 -0.073562 0.5316 -0.36782 -0.42531 -0.066561 0.34648 -0.13677 -0.26654 0.099056 -0.052121 -0.61409 -0.0036171 0.32633 0.3905 0.029416 -0.1119 -0.2118 -0.15688 -0.29308 0.23114 0.13873 0.66445 -0.26318 -0.25518 0.29499 0.70132 -0.3239 0.42109 0.27316 0.15021 0.058074 0.24201 -0.62194 -0.40832 0.038272 -0.35372 0.013934 -0.25013 0.42916 -0.039463 -0.29794 1.0178 -0.41685 0.15442 0.19598 0.44718 -0.25764 0.13438 -0.084223 -0.14142 -0.16001 -0.32541 -0.19588 0.13934 -0.44924 0.20827 -0.15747 0.035537 0.37097 -0.15336 0.20401 0.35981 -0.26311 -0.27436 -0.41229 0.45533 0.77527 0.29339 -0.27392 0.45037 0.060015 0.081354 -0.53969 0.31872 -0.082837 0.77918 0.094676 0.75256 0.33377 -0.55349 -0.15661 0.20791 -0.13498 0.4756 0.1218 -0.16496 -0.65669 0.52394 -0.43666 -0.0087235 0.52565 -0.12011 -0.21406 -0.15253 -0.22775 0.59701 -0.64509 -0.445 0.40937 0.11943 0.034467 -0.32471 -0.47915 -0.25264 0.26818 0.059601 -0.51842 0.33124 -0.29623 -0.28343 -0.41471 -0.04505 -0.0017776 -0.37654 -0.023911 0.55602 0.2044 -2.2391 0.14986 -0.098345 0.18714 -0.19265 -0.0061057 0.39897 -0.22392 -0.42168 1.0727 0.29344 -0.47384 0.30169 -0.15307 0.19966 -0.40979 -0.10325 -0.04361 0.17564 0.65709 -0.09986 0.49107 0.28215 0.34554
short -0.20486 -0.26752 -0.13951 0.14984 0.1279 0.095359 -0.18778 0.047617 0.034299 -1.5214 0.34569 0.29065 -0.25403 0.18497 0.17077 -0.14983 -0.044048 0.34835 0.10122 -0.26475 -0.57686 -0.075684 0.19694 0.34503 0.013478 0.38389 0.38246 -0.26227 -0.21393 0.23553 -0.20575 0.24704 0.21221 0.00023574 -1.0607 0.045866 -0.30503 0.40691 0.10014 0.1517 -0.52935 -0.014733 0.067743 0.16784 0.13116 0.39026 -0.13503 0.0072359 -0.38533 0.37626 -0.0144 -0.03909 -0.0054264 -0.083772 0.21782 0.24503 -0.18361 -0.16543 0.18812 0.081955 0.21729 -0.19406 0.11634 -0.4777 0.11114 -0.46116 0.23015 0.48081 0.91102 0.23937 0.32277 0.34226 0.42796 -0.15694 0.27293 -0.2544 0.016534 0.42598 -0.17941 -0.55739 0.1163 0.3969 0.42544 0.19902 -0.058551 0.71922 0.56925 0.33625 0.33579 0.20141 0.69895 0.43463 -0.25472 -0.16776 0.33418 0.13674 -0.40682 0.069711 -0.080003 -0.0031487 0.15313 -0.11387 -0.45928 0.17785 -0.52118 -0.012802 0.12135 -0.32501 -0.25334 -0.20128 -0.65438 0.35246 0.14485 -0.12846 0.033925 -0.15336 -0.10684 0.14291 0.22102 -0.64926 -0.14231 -0.20527 0.17526 -0.069237 0.30602 0.29291 0.18101 -0.12301 0.066295 -0.014347 0.082012 0.23115 -0.45205 -0.12264 0.072921 -0.14269 -0.016415 -0.080733 0.041352 -0.063126 -0.16079 -0.17858 0.011484 0.013463 -0.24011 0.16895 -0.028665 0.15278 0.39823 -0.25177 0.42923 -0.1086 -0.44764 -0.064016 0.40038 -0.29612 0.16347 -0.20873 0.16009 0.0054598 -0.21374 -0.030418 0.12172 -0.34414 -0.25055 0.58393 -0.38205 0.27447 -0.04331 0.16221 0.29007 -0.30798 -0.8404 0.36266 -0.2701 0.16589 0.046595 0.15994 -0.17035 -0.022658 0.14994 -0.57692 0.36158 -0.022242 0.0068125 -0.043459 -0.1279 0.032468 0.045527 0.15103 -0.39317 0.45563 0.42555 -0.17057 -0.609 -0.25197 -0.46567 -0.57585 0.11152 0.017717 1.0198 0.071217 -0.37674 0.085405 0.30845 0.22498 -0.28669 0.39239 -0.17364 -0.21231 0.36639 -0.88765 0.023287 0.17189 0.039405 0.17001 -0.22184 -0.2766 -0.12495 -0.46246 0.46038 -0.26864 -0.31497 0.13898 0.28303 -0.22051 0.20501 -0.35446 -0.13358 -0.088106 0.22006 -0.17055 -0.32246 -0.12691 -0.051829 0.12345 -0.12272 -0.0969 0.25584 0.21391 0.60032 0.12052 -0.019365 0.041449 -1.0799 -0.34309 -0.052774 0.083838 -0.07458 -0.32361 -0.078938 -0.13174 -0.31299 -0.47101 0.15858 -0.47424 -0.28966 0.54269 0.087734 0.094758 0.18094 0.13027 -0.43173 -0.16383 -0.36945 0.11496 -0.076631 0.0069105 -0.030614 0.33856 0.10578 -0.23723 -0.4304 0.54816 0.066698 0.061397 -1.7978 -0.012563 -0.075064 -0.20785 0.074856 -0.38814 0.10366 -0.24791 -0.28506 0.075147 0.0027682 0.30914 -0.58325 0.095371 -0.34551 -0.043506 -0.15491 -0.53084 0.01163 0.093851 -0.24615 -0.04233 -0.052768 -0.17641
king 0.0033901 -0.34614 0.28144 0.48382 0.59469 0.012965 0.53982 0.48233 0.21463 -1.0249 -0.34788 -0.79001 -0.15084 0.61374 0.042811 0.19323 0.25462 0.32528 0.05698 0.063253 -0.49439 0.47337 -0.16761 0.045594 0.30451 -0.35416 -0.34583 -0.20118 0.25511 0.091111 0.014651 -0.017541 -0.23854 0.48215 -0.9145 -0.36235 0.34736 0.028639 -0.027065 -0.036481 -0.067391 -0.23452 -0.13772 0.33951 0.13415 -0.1342 0.47856 -0.1842 0.10705 -0.45834 -0.36085 -0.22595 0.32881 -0.13643 0.23128 0.34269 0.42344 0.47057 0.479 0.074639 0.3344 0.10714 -0.13289 0.58734 0.38616 -0.52238 -0.22028 -0.072322 0.32269 0.44226 -0.037382 0.18324 0.058082 0.26938 0.36202 0.13983 0.016815 -0.34426 0.4827 0.2108 0.75618 -0.13092 -0.025741 0.43391 0.33893 -0.16438 0.26817 0.68774 0.311 -0.2509 0.0027749 -0.39809 -0.43399 0.049531 -0.42686 -0.094679 0.56925 0.28742 -0.015721 -0.059162 0.1912 -0.59814 0.65486 -0.31363 0.16881 0.10862 0.075316 0.34093 -0.14706 0.8359 0.39697 0.52358 -0.0096367 -0.14406 0.37783 -0.596 -0.063192 -0.85297 -0.3098 -1.0587 -1.025 0.4508 -0.73324 -1.2461 -0.028488 0.20299 0.00259 0.31995 0.35744 0.28533 0.228 0.50956 -0.35942 0.32683 0.046264 -0.86896 -0.2707 -0.15454 -0.32152 0.31121 0.44134 0.85189 0.21065 -0.13741 -0.15359 -0.059722 0.027375 0.23724 -0.39197 -0.66065 0.23587 0.032384 -0.64043 0.55004 0.29597 0.14989 0.46079 -0.26561 -0.1607 -0.36328 1.0782 0.31375 0.1149 0.20248 0.032748 0.41082 -0.082536 0.36606 0.18771 0.75415 0.079648 0.24181 -0.60319 -0.37296 -0.047767 0.45008 -0.21135 0.022251 -0.084325 0.18644 -0.14682 0.56571 -0.30995 0.17423 -0.41122 -0.84772 -0.71114 0.69895 -0.13008 -0.34195 -0.30501 -0.12646 0.29957 -0.43488 0.31935 0.2817 -0.20631 -0.48877 0.34477 0.03907 1.6198 -0.6352 -0.0037675 -0.41271 0.30704 -0.50486 0.036385 -0.046386 -0.12004 0.010029 -0.49116 0.041486 0.002979 -0.57694 -0.42088 -0.063218 0.0034244 -0.25093 -0.39689 -0.36984 0.32689 0.01385 0.23634 -0.055199 -0.58453 0.13211 0.50943 0.25198 -0.0088309 -0.21273 -0.48423 0.5234 -0.32832 -0.013821 0.15812 0.46696 0.036822 -0.090878 0.18854 0.20794 -0.42682 0.59705 0.53109 0.19185 -0.16392 0.064956 -0.36009 -0.59882 -0.28134 0.1017 0.02601 0.44298 -0.31922 -0.22432 0.7828 0.041307 0.1742 0.27777 0.43792 -0.84324 0.27012 -0.21547 0.52408 -0.19426 -0.21878 -0.20713 0.092994 -0.15804 0.28716 -0.11911 -0.20688 -0.36482 0.68548 -0.10394 -0.49974 -0.47038 -1.2953 -0.46236 0.44467 0.13337 0.88762 -0.26494 0.080676 -0.20625 -0.51232 0.31112 0.062035 0.30302 -0.33344 -0.20924 -0.17348 -0.43434 -0.45743 -0.077803 -0.33248 -0.078633 0.82182 0.082088 -0.68795 0.30266
canada 0.25836 0.14153 -0.47499 -0.060427 -0.1558 0.33012 -0.5541 0.47438 -0.68565 -1.185 0.84861 -0.26529 -0.21535 0.10592 -0.2281 0.79917 -0.46448 0.10458 -0.21554 0.12379 -0.64091 0.53306 0.53376 0.3067 -0.038342 0.2616 0.2917 -0.45894 -0.33007 0.057012 -0.37354 0.27174 0.32555 0.32485 -0.68717 0.087202 0.39793 0.504 -0.12578 0.01131 -0.91692 0.35132 0.084608 0.80779 -0.060778 0.017115 -0.35097 0.21772 -0.063157 0.022138 -0.28859 0.0060472 0.23216 0.0054394 -0.098861 0.074383 -0.015562 -0.12656 -0.065324 -0.072667 -0.18582 1.0677 -0.39888 -0.60716 0.12365 -0.51758 -0.47956 0.56492 -0.08174 0.16852 -0.32067 0.16312 -0.091756 0.44795 -0.61856 -0.3252 -0.3702 -0.020141 -0.016318 -0.25446 -0.38037 -0.21527 -0.14443 -0.51253 -0.39658 -0.52603 0.13496 -0.51341 -0.81248 -0.55087 0.062145 0.070197 0.42075 0.062072 0.55674 -0.31108 -0.20962 0.12162 -0.54749 0.21063 0.30231 0.052119 -0.44879 0.024813 0.2229 0.02964 -0.26962 0.62038 -0.29753 0.81416 -0.090812 -0.7074 -0.2662 -0.30723 -0.31215 -0.4061 0.44718 0.79727 0.00024194 0.11506 -0.42043 0.30036 -0.41258 -0.29143 -0.23937 0.35314 -0.16229 0.025641 0.68199 -0.095315 -0.080022 -0.27438 0.037514 -1.0763 0.53431 -0.06887 -0.26664 0.13743 -0.25579 -0.13273 0.22323 0.20982 0.035183 0.41378 -0.018074 -0.18955 0.38634 -0.49428 -0.0051449 -0.27259 0.8633 -0.20619 -0.11506 -0.15792 0.16895 0.16182 -0.62639 -0.11784 -0.10988 -0.52266 -0.11561 0.3021 0.13644 -0.05734 0.026619 0.75033 0.04925 -0.13155 -0.23018 0.26431 -0.14202 0.32476 -0.36412 0.22968 0.49682 0.40225 0.19679 -0.060924 -0.16263 0.8291 -0.60777 0.10593 0.37443 -0.70247 0.88484 -0.155 -0.49236 -0.052164 -0.59663 0.053845 0.28479 0.046324 -0.054857 0.23837 -0.36866 0.093946 0.73635 -0.17674 0.014459 0.013866 0.92473 -0.46051 -0.35598 -0.40978 -0.38284 0.68499 0.13171 0.36958 -0.10612 -0.068489 -0.10579 -0.28147 0.45173 0.5909 -0.5419 -0.14321 -0.48149 -0.054712 0.18966 -0.023889 0.34796 0.25727 -0.0025308 -0.47508 0.17621 0.53388 0.66136 -0.41011 0.21562 -0.16009 -0.10382 0.33918 -0.14234 -0.071664 0.13564 -0.31416 0.38672 0.35415 0.14684 -0.020721 -0.68944 0.63072 0.39112 0.14848 -0.068142 -0.36735 0.017277 -0.010821 0.34817 0.050991 0.44593 -0.047059 0.24895 0.32507 0.14964 -0.28359 -0.18852 0.53411 -0.28163 0.22377 0.25583 -0.40576 0.13707 1.0879 -0.29323 0.1775 0.235 -0.29068 -0.68159 -0.14112 -0.20865 -0.27427 0.21667 -0.40889 0.23333 0.10681 -1.6245 -0.34885 0.92905 0.2607 0.28958 0.12134 -0.59511 -0.13193 -0.29381 0.33762 0.46175 0.49419 -0.31987 0.47781 0.34812 0.40394 -0.34528 0.30197 0.25444 0.4604 0.17417 0.17466 0.53683 -0.45132
woman -0.51821 -0.13809 -0.41185 -0.13133 0.0035659 -0.31205 -0.31242 -0.43538 -0.27017 -1.1338 0.19282 -0.23786 0.0028892 -0.027078 0.14747 -0.051265 0.089021 -0.12337 -0.40892 -0.39197 -0.5665 0.40684 -0.057313 0.18613 -0.33095 -0.25243 0.33452 -0.23104 -0.0099149 0.24269 -0.57504 0.30122 -0.33779 -0.294 -0.80202 0.44674 -0.40296 -0.21026 0.1072 0.53937 0.63971 -0.3154 -0.082537 -0.038314 -0.058821 0.11235 0.50928 0.14656 -0.18988 0.24132 -0.038442 0.071418 0.38471 0.10584 -0.52786 -0.057574 0.13771 -0.48613 0.62553 -0.3308 -0.065539 0.1791 0.62746 0.087208 -0.60422 -0.64595 -0.2389 -0.1585 -0.07948 -0.037848 -0.205 -0.44504 -0.21127 -0.0026664 -0.0080152 0.39607 0.069091 -0.34379 -0.13992 0.084029 -0.40245 0.094426 0.28908 0.6216 -0.4132 -0.12153 -0.40676 -0.05771 0.17415 0.094069 -0.65955 -0.34154 -0.079291 0.16867 0.31665 -0.072868 -0.44181 -0.19555 0.16942 -0.197 0.17484 0.11972 0.012957 -0.32238 0.33737 0.35553 0.82906 -0.37521 0.34777 -0.13105 -0.046688 1.2125 0.025435 -0.36021 0.65259 0.63729 0.23457 0.19874 0.22589 -0.016769 0.10671 0.86805 -0.02853 -0.011634 -0.39911 0.12429 -0.066363 0.0080237 0.41826 -0.60603 0.26269 0.035625 -0.10225 0.44362 -0.38952 -0.054241 -0.31542 -0.076452 -0.33072 0.42178 0.29242 0.13222 -0.14896 0.32047 -0.4735 -0.1093 0.31163 0.49836 -0.20143 0.36058 0.32242 -0.11148 0.6416 0.20955 0.035183 0.16684 -0.41427 -0.41894 0.18777 0.39424 0.25784 0.18818 0.60567 0.15537 -0.27121 0.054047 -0.18342 0.29789 0.35805 -0.40148 -0.019914 -0.019742 -0.56609 -0.25878 -0.036075 0.0093725 -0.25284 -0.061715 -0.26441 0.47597 0.087956 0.051997 0.21366 -0.0034455 0.1739 -0.16853 -0.22233 -0.1006 -0.032696 -0.008549 0.036532 -0.19339 -0.28571 -0.29294 -0.53655 0.16387 -0.36861 -0.52443 -0.84287 0.26247 1.8261 0.029467 0.19155 0.28406 -0.1017 -0.31416 -0.084328 0.42934 0.32851 0.41274 -0.080323 0.063666 -0.18441 0.13328 0.46 -0.24984 0.12574 -0.49056 -0.072603 0.28191 -0.25738 0.40629 0.38381 -0.37685 -0.16371 0.30354 -0.38234 -0.61633 -0.22076 0.38153 0.54091 -0.32349 -0.032075 -0.051326 -0.12465 0.19237 -0.077144 0.27005 -0.20103 -0.26512 0.35769 -0.23437 0.054273 0.16901 -0.15758 0.42714 0.23167 -0.021318 0.3086 0.44873 -0.12432 -0.15715 -0.099448 -0.24825 1.156 -0.38925 -0.0063171 0.48928 0.46089 -0.17058 0.06118 -0.54 -0.054482 0.13329 -0.47944 0.17119 0.26289 0.14383 -0.30443 0.27534 -0.14711 -0.52172 0.32909 -0.15149 0.1539 0.24171 -1.6971 0.027579 -0.0073776 0.30144 0.011751 0.012419 0.38711 -0.044167 -0.62495 0.74536 0.043054 0.62925 -0.33381 -0.048651 0.09395 -0.20336 -0.055232 0.096572 0.09321 -0.17298 -0.20794 0.37342 -0.030166 0.73014
brought 0.0017614 -0.18804 -0.048745 -0.35112 -0.041596 -0.24985 0.046174 -0.007933 0.0868 -1.0251 0.037301 -0.13792 -0.22617 0.074929 -0.11003 0.13713 -0.11408 -0.020473 -0.069707 0.25145 0.052564 0.042302 0.23615 -0.40922 -0.20316 0.2309 0.061992 -0.079011 0.073787 0.0086029 -0.073921 0.040813 -0.44119 0.2147 -0.84075 -0.2799 0.043223 0.083496 0.36765 -0.080728 -0.0047172 -0.2862 0.23549 -0.0087378 0.15254 0.042735 0.02544 0.0080975 0.0088641 0.189 -0.0050868 -0.1776 -0.26222 -0.096212 0.041778 0.032635 0.16935 0.13389 0.089444 -0.21564 0.020444 -0.027181 0.3021 -0.26124 -0.39209 -0.18806 -0.21176 0.20914 -0.32753 -0.4225 0.16822 -0.26415 -0.043937 -0.29307 0.16868 0.023916 -0.010981 -0.059709 0.085896 0.070922 -0.12459 0.20321 0.019645 0.47453 0.049303 0.052299 0.18602 0.0064646 0.28132 0.043451 0.058192 -0.11955 -0.42718 0.10883 0.078387 -0.16154 0.088009 -0.33222 0.20289 0.12687 -0.017504 0.086799 0.2902 -0.01656 0.050979 -0.15648 0.24069 0.084317 -0.038055 0.078449 0.35992 -0.055463 -0.09979 -0.16671 0.08369 -0.0056748 -0.016125 0.0067471 -0.2034 -0.7284 -0.071 -0.14839 -0.26909 0.0034628 -0.0071893 0.1398 -0.099352 0.50839 0.24002 0.39385 0.15868 0.18955 0.31941 -0.11957 -0.010586 0.068556 0.076947 0.085483 -0.40747 0.17476 -0.13869 -0.12364 -0.033576 0.34526 -0.30352 -0.20034 0.29022 0.15769 -0.16869 -0.14975 0.28563 0.042088 0.13702 0.21076 0.23533 0.34742 0.15667 0.026315 -0.12506 -0.11045 0.26189 -0.23187 0.13999 0.48289 0.17126 -0.26617 0.6818 0.15986 -0.013537 0.31026 0.043534 0.077692 -0.47915 -0.10674 0.063294 -0.02637 -0.15794 -0.022917 0.033035 0.37357 0.12703 0.12804 -0.01477 0.089672 -0.16656 0.06298 -0.50747 0.027159 0.23463 0.027187 -0.24184 -0.17684 -0.18902 -0.11581 -0.09661 -0.0394 -0.15569 -0.17481 0.01587 0.11814 0.49896 -0.1798 0.25725 -0.18473 0.19698 0.19184 0.097935 0.59826 -0.21534 -0.057629 -0.049361 0.15459 0.055376 0.054838 0.63231 -0.11877 -0.095822 -0.156 -0.13611 -0.12487 0.32819 -0.034362 0.087945 -0.11654 -0.055727 -0.13162 0.35326 0.046286 0.24735 -0.084105 -0.15924 -0.11213 -0.40804 -0.34422 -0.090245 0.18718 0.3269 -0.21526 -0.26936 -0.083626 -0.21607 -0.11246 -0.0084247 0.27572 -0.67941 -0.23993 0.231 -0.022465 0.0061458 -0.041137 -0.097833 -0.049942 0.13338 0.025472 0.83548 0.0090705 0.11331 -0.36703 0.1396 0.29708 -0.33929 -0.16136 0.3221 0.52012 -0.14643 0.029344 -0.39515 -0.095631 0.052406 -0.36936 -0.2401 -0.093075 0.0085434 0.006461 0.38303 -0.056634 -1.727 -0.22021 0.5139 0.22599 -0.61164 0.24248 0.25957 0.10022 0.33934 0.0052857 -0.15367 -0.23703 -0.049354 -0.045426 0.033928 -0.052379 0.26171 0.10622 -0.065616 0.33814 0.083279 -0.11413 -0.016447 0.018986
italy 0.032153 0.41639 -0.41594 0.065672 0.23653 0.13082 -0.4866 -0.22486 -0.50132 -1.4622 0.30859 0.23616 0.69443 0.42745 -0.19237 -0.42195 0.21496 0.14659 -0.22117 0.38409 -0.080372 0.55915 0.41271 -0.2662 -0.2167 -0.46194 -0.13238 -0.3792 -0.45265 -0.14679 -0.89217 0.5588 -0.15136 0.39178 -0.79342 0.0095561 0.54513 -0.48459 -0.15227 -0.11922 0.047221 -0.68031 -0.24821 -0.070483 -0.44197 -0.59512 0.49523 0.67179 0.17471 0.21527 -0.70643 -0.19617 0.82933 0.11375 0.29953 0.46081 0.0020299 -0.11754 0.53374 0.37924 -0.29984 0.41343 -0.48491 -0.56444 -0.34234 0.24201 -0.30778 0.37202 0.080052 -0.69809 -0.091955 0.082229 -0.50565 -0.85593 -0.01696 -0.041366 -0.040501 -0.13037 0.080091 0.0052495 -0.11208 -0.4133 -0.64772 0.32204 0.069617 1.0066 0.13685 0.049752 -0.087193 0.19636 0.89091 0.23745 -0.082034 -0.7522 0.16386 -0.56735 -0.78445 0.31227 -0.85711 -0.033404 0.079955 -0.12227 -0.16739 -0.46322 -0.23503 -0.15009 0.24856 0.22724 0.073596 0.43277 0.84279 -0.070446 -0.050143 -0.8696 0.3701 -0.24815 -0.18592 0.15462 0.46849 -0.16883 -0.48678 0.4775 0.097791 -0.36822 0.67405 0.76392 -0.64854 -0.24223 0.11016 0.43371 0.10852 -0.48127 0.25998 0.13706 0.064923 -0.2331 0.27919 -0.30654 -0.050469 -0.97621 0.23131 0.03227 -0.48912 0.4827 0.026809 -0.10198 -0.13602 -0.88859 -0.24956 -0.22699 0.03149 0.072403 0.11716 -0.24574 -0.33961 0.22998 0.095439 0.81062 -0.96646 -0.43485 -0.45732 -0.61294 0.34501 0.43241 0.61887 0.061878 -0.2655 -0.4516 0.21393 -0.096996 0.20165 0.77376 0.012449 0.17116 -0.96408 0.27821 0.36893 -0.21663 0.20354 0.49349 0.032491 0.54136 0.18836 0.18051 0.49799 0.029277 -1.436 -0.006205 -0.45367 0.073398 0.22048 0.15779 0.010517 -0.056673 0.020352 -0.81182 0.0229 -0.13331 -0.10685 0.57464 1.2489 0.12326 -0.51998 0.18219 0.19542 0.027079 -0.3701 0.29959 -0.19176 -0.33379 0.077214 0.044306 -0.064597 0.57042 -0.088545 -0.066076 0.098542 -0.76135 -0.19276 0.11927 0.54701 0.17193 0.25822 -0.43474 -0.55975 -0.32153 0.36146 -0.55887 -0.28261 0.35804 -0.42149 -0.45975 -0.19106 0.030533 0.73621 -0.42836 -0.013654 0.66219 0.62788 -0.016263 -0.57606 -0.065195 0.55944 -0.19528 0.68663 0.55054 -0.057769 0.40581 -0.16754 0.12342 0.20264 0.12152 0.2194 0.2172 0.2055 -0.51146 -0.26767 0.041104 -0.23702 0.36625 0.21434 -0.66055 0.20993 0.52511 0.16919 -0.18631 -0.49475 -0.095554 0.10619 -0.77474 -0.043391 0.055522 -0.2845 0.24503 -0.51361 -0.085433 -1.5727 -0.61673 0.88221 0.2522 0.015237 0.64228 -0.24738 0.014615 0.35971 0.089688 0.15652 0.48027 0.30739 -0.060933 -0.10947 0.17966 -0.11769 0.59752 -0.13748 0.62898 -0.14288 -0.51203 -0.0030393 -0.56419
bring -0.025666 -0.019849 -0.39602 -0.38958 -0.19008 -0.12407 0.12347 0.37604 0.23969 -1.3901 0.094428 -0.17664 -0.082906 0.12399 -0.12174 -0.0095221 -0.18397 0.035045 -0.18218 0.08643 0.026247 0.18538 0.26463 -0.14697 -0.059468 0.15267 0.25483 0.21293 0.18488 -0.19961 -0.015167 -0.06111 -0.11228 -0.072728 -0.9281 0.12229 0.1758 0.2484 0.0062518 -0.47696 -0.037046 -0.47624 -0.088019 -0.062404 0.15011 -0.11288 -0.038817 0.0034824 0.0033211 -0.11914 0.27271 -0.14477 -0.27821 -0.59496 -0.20294 0.42973 -0.050822 0.3819 0.039496 0.065129 0.023366 0.0082145 0.14443 -0.067532 -0.26438 0.11399 -0.19143 0.14182 -0.18866 0.0077751 0.12086 -0.28992 0.12628 -0.16506 0.55792 -0.045611 -0.20623 0.019027 -0.014116 -0.15052 -0.09938 -0.11632 0.25804 0.060509 0.053167 0.1924 -0.25836 0.16428 -0.094806 -0.25698 -0.19178 0.11176 -0.21559 -0.22505 0.018591 -0.22057 -0.020065 -0.18949 0.28792 0.23819 -0.18637 -0.0085396 -0.092097 0.13545 0.1207 0.017841 0.14024 -0.32408 0.16451 -0.14525 0.29916 -0.36081 -0.18208 -0.32867 -0.074605 -0.006312 0.095715 0.035809 0.19155 -0.24293 0.13254 -0.036751 0.017954 0.20404 -0.057607 0.030911 0.65544 0.7115 0.21987 0.55786 0.081246 0.041299 0.29198 0.29726 0.17027 0.095078 -0.11138 0.015843 -0.45726 0.11713 -0.10151 -0.014126 -0.14585 0.52647 -0.50622 -0.16922 -0.263 0.057893 -0.26076 -0.012867 -0.14922 0.10659 0.25634 -0.024753 0.25787 0.21413 -0.13162 0.023445 -0.44926 -0.12025 0.36014 -0.089543 0.20637 0.20369 0.16732 -0.31358 0.5091 0.34108 -0.35352 0.030134 0.20633 0.11665 -0.67822 -0.025704 0.25255 -0.12279 -0.04224 -0.084751 -0.0021968 0.25463 0.060761 -0.27932 0.19959 0.21437 -0.14926 0.22033 0.0028307 0.19457 0.017788 -0.17235 -0.32541 0.16601 -0.2603 0.26716 0.039146 0.14436 -0.14869 0.1498 0.26498 0.019041 0.72074 0.37514 0.45842 0.30289 -0.12018 0.10189 0.37397 0.4333 -0.048116 -0.11471 -0.063737 -0.20201 0.14674 0.33898 0.33868 0.011951 0.045755 0.15816 -0.12939 -0.076406 0.46453 0.022345 -0.01854 -0.094417 -0.20841 -0.29437 0.20459 0.28177 0.19142 -0.30789 -0.17149 0.0095911 -0.026528 -0.1355 -0.0065499 0.27814 0.0032234 -0.17519 -0.41077 -0.39023 -0.27817 -0.080443 0.12425 0.20885 -0.44291 -0.20614 0.47435 0.099938 -0.40773 -0.31306 -0.2065 -0.086707 0.1088 0.13381 0.27125 0.041804 0.077948 -0.12702 0.15171 0.45145 0.095956 -0.44688 0.26976 0.45253 -0.17085 0.039972 -0.34492 0.12277 0.17915 -0.28498 -0.022764 0.40451 0.079132 0.248 0.19527 -0.16673 -2.1974 -0.094846 0.92716 -0.31069 -0.053244 0.45586 0.15584 0.23867 0.12576 -0.26914 0.21976 0.084842 -0.080435 0.073863 -0.12155 -0.24451 0.11944 -0.095159 0.19434 -0.019067 0.018479 -0.18025 -0.03627 0.40872
child -0.41542 0.077196 -0.28246 0.071125 -0.15807 0.13774 -0.1573 -0.29996 -0.58406 -1.1811 0.063593 0.45285 -0.22261 0.086 -0.14795 -0.17648 -0.2956 -0.8059 -0.20627 -0.27331 -0.39759 0.70775 -0.51263 0.068085 -0.031094 0.3463 0.21095 -0.14119 0.25566 0.021061 -0.3691 0.64622 -0.081492 -0.24631 -0.55506 0.31262 -0.12622 0.039356 0.23907 -0.13027 0.3678 -0.51122 0.31858 -0.30897 -0.35954 0.051692 0.089485 0.42911 0.013107 -0.39066 0.39074 -0.25029 0.19372 0.46118 -0.1304 -0.59472 0.33158 0.074131 0.11307 -0.49966 0.093331 0.091971 0.28285 0.64434 -0.12119 -0.40832 0.025963 -0.31839 -0.45802 0.20052 -0.24689 -0.71153 -0.27957 -0.34919 0.50912 -0.36748 -0.18309 -0.23648 0.20708 0.25734 0.11086 -0.37374 0.46235 0.021448 -0.26022 -0.091482 -0.43261 0.025497 -0.12053 0.38878 -0.45167 0.041857 -0.64942 0.33913 -0.39287 -0.18731 0.15513 -0.07269 -0.14386 -0.58155 0.51519 -0.25593 0.24244 -0.00083847 0.47382 -0.24996 0.33656 0.34406 0.16472 -0.097524 0.28122 0.040396 -0.17852 -0.010981 0.59682 0.44932 0.68122 0.54415 -0.32912 -0.15965 -0.06292 0.55356 -0.28029 -0.111 -0.25906 -0.31154 -0.08662 -0.21387 0.38642 0.20407 0.59791 -0.16598 0.19488 0.50197 0.073734 -0.040206 0.084197 0.081617 -0.33089 0.42395 0.030022 0.087706 -0.04007 -0.48769 0.11369 -0.19718 0.39111 -0.071299 0.5378 0.099941 -0.074196 0.224 -0.058025 0.41299 -0.40146 0.15442 -0.12575 -0.29495 -0.15755 0.057091 0.52792 0.013667 0.48734 -0.14584 -0.16072 -0.079367 0.087689 0.37361 0.32647 0.19656 -0.12301 0.39875 -0.52113 0.3427 -0.2121 -0.50986 0.23885 0.015791 -0.66528 0.58911 -0.21592 -0.22666 -0.33616 0.13864 0.20107 -0.0248 -0.20069 -0.23403 0.31051 0.040907 0.016124 -0.28586 -0.25551 0.23259 -0.52206 0.31023 0.32606 -0.055356 0.073389 -0.30849 0.97326 0.41075 0.66225 -0.30823 0.32638 0.075822 -0.051138 -0.042783 -0.26066 0.10285 0.065051 -0.36023 -0.10294 -0.034938 0.20601 0.0487 -0.19882 -0.027308 -0.13268 -0.031608 -0.28314 0.25655 0.023235 0.063236 -0.27077 0.27165 0.50261 -0.57157 0.077815 0.25836 0.2514 -0.084536 -0.19517 -0.3675 -0.43298 0.45804 -0.093057 0.91356 -0.42071 -0.34176 0.21767 -0.70802 0.5711 -0.20684 -0.71373 0.36048 0.24672 0.14429 -0.17768 0.37829 -0.65305 0.48485 -0.020993 0.045504 1.1149 0.61595 0.090765 -0.35839 0.1469 0.41557 -0.20117 -0.4856 0.020576 0.54079 -0.45967 0.19455 0.23202 0.0019386 -0.18179 0.43357 -0.20792 -0.70555 0.23862 -0.095822 0.17188 0.018884 -2.5004 -0.17696 0.30194 0.24168 0.070962 0.097913 -0.40868 -0.26579 -0.62793 0.5259 0.42156 0.46017 -0.41305 0.11003 -0.062683 -0.2764 0.055566 0.065581 -0.020648 -0.049411 0.038551 0.17236 -0.22505 0.0057502
bad 0.30882 -0.12693 -0.077843 -0.010746 -0.14619 -0.22566 0.075975 0.85447 0.29856 -1.5785 0.18931 0.022739 -0.086175 0.14063 0.0069354 -0.52732 0.39984 -0.12381 0.40456 0.21032 0.098922 0.36351 0.22053 0.10869 -0.2861 -0.1277 0.18627 -0.43558 0.4555 0.13158 -0.31252 -0.049567 -0.062552 -0.020131 -1.5297 0.10255 -0.40889 -0.066389 -0.24464 0.016978 0.068452 -0.51782 -0.065903 -0.19955 0.22471 -0.19351 -0.13876 -0.34565 -0.13795 0.18459 0.11749 -0.17033 0.016477 -0.27097 -0.51028 0.28097 0.19605 0.32877 0.069901 0.065522 0.14567 -0.26392 -0.20467 -0.20856 0.037879 -0.32626 0.21206 -0.10508 0.05019 -0.21727 0.045804 -0.18437 -0.039741 0.031743 -0.22536 -1.0393 0.23127 0.48535 0.037644 -0.44908 -0.19973 -0.30405 0.68809 0.22948 0.30544 0.29284 0.314 0.15692 -0.082778 0.16488 -0.17816 0.76964 -0.33166 -0.51423 0.31927 0.47337 -0.37523 0.13015 0.0052844 -0.33935 0.34441 -0.26535 0.38856 0.12296 -0.072159 0.091642 -0.29311 -0.029651 -0.484 0.047576 -0.3167 -0.75175 -0.22635 -0.23551 0.68024 0.1282 0.17234 -0.19549 -0.0011381 -0.66854 0.34222 -0.82651 -0.26483 0.28701 -0.012048 0.19373 -0.13193 -0.078894 0.27059 0.079666 0.23458 0.63305 0.36057 0.050838 -0.11099 -0.086134 0.049766 0.22674 -0.17081 -0.0168 -0.36126 0.4036 0.088921 0.1166 -0.29439 -0.21874 -0.071895 0.013898 0.43768 0.045479 -0.43515 -0.15183 -0.013402 -0.14219 0.0099559 0.24617 0.33452 0.11662 0.16492 0.5498 0.39 -0.54215 0.10238 -0.21211 0.10747 0.42818 0.32761 -0.13304 0.33565 -0.30569 0.20941 0.10887 -0.67169 -0.26384 -0.50449 -0.14977 0.16185 -0.30156 -0.26375 0.020592 0.50613 -0.077544 -0.070151 -0.15161 0.065019 -0.25049 0.38201 -0.88072 0.10301 -0.26687 -0.42351 0.20848 0.13385 -0.16993 -0.15063 -0.44737 -0.21109 -0.24887 0.17121 -0.31239 1.2846 0.26929 0.18466 0.058251 -0.35074 -0.26286 -0.14175 0.23486 -0.040809 -0.18245 -0.69476 0.13742 -0.086049 -0.48789 0.25688 0.0077018 0.63682 -0.081101 0.28344 0.05192 -0.39207 -0.055012 0.11129 0.27824 0.072077 0.0009847 0.19228 -0.34354 0.37729 0.33646 -0.041884 -0.10099 -0.37617 -0.43988 -0.19632 0.18623 0.014534 -0.13843 0.12186 -0.070215 0.54259 -0.10072 0.2706 -0.38217 -0.82019 0.0036283 -0.29292 0.21561 0.13329 -0.0094057 0.26871 -0.12298 -0.15268 0.25236 0.7176 0.28491 -0.28425 -0.38529 0.057052 -0.42452 -0.041904 0.15362 -0.63003 0.037994 0.11886 0.11497 -0.17062 -0.30804 -0.14622 -0.045541 0.15856 -0.1097 -0.085072 0.25397 0.1419 0.043596 -1.3298 0.048556 0.32542 0.009254 -0.55029 0.14101 0.093567 0.3845 -0.12122 0.35764 0.34719 -0.1261 0.25996 -0.21837 0.013942 -0.09701 -0.19838 -0.16787 0.41086 -0.491 -0.15847 -0.13535 -0.10446 0.23256
spain 0.57118 0.026095 -0.29801 -0.032558 -0.02156 0.4056 -0.72295 0.67535 0.46939 -1.2843 0.74605 0.64279 0.55908 0.90971 -0.36709 -0.47714 -0.13558 0.23691 0.28119 0.32337 -0.16753 0.040236 0.295 -0.27447 -0.57934 -0.78258 -0.46986 0.52337 -0.38623 0.18643 -0.40888 0.93113 -0.2821 0.3881 -0.5786 -0.56821 0.63842 -0.015052 -0.35629 0.44768 -0.33144 -0.39703 0.041959 -0.35475 0.3458 -0.86361 0.20167 0.17713 0.53264 0.51642 -0.12521 -0.075569 0.68686 -0.40861 0.21003 0.15172 -0.25891 -0.16094 -0.12215 -0.10217 -0.11059 -0.031263 -0.22112 0.31248 -0.62176 -0.90991 0.45287 0.23971 -0.23181 -0.62831 -0.07214 0.78148 0.29902 -0.21217 -0.13878 -0.53801 0.097323 -0.095777 -0.056853 0.33745 0.14503 -0.10361 -0.59297 0.5503 0.31904 0.16542 0.33097 -0.16562 0.19252 0.10027 0.90757 -0.1188 -0.38627 -0.33771 0.077051 -0.29985 -0.21384 0.18071 -0.47265 -0.26232 0.25377 -0.19004 0.34614 -0.14604 0.43879 0.36156 -0.026976 0.34305 -0.62032 0.58118 0.67508 -0.21158 0.26737 -0.88753 -0.61149 0.044651 -0.16766 0.44594 -0.22205 -0.015574 -0.4649 -0.23998 -0.4396 -0.38588 0.021218 0.7846 -0.15138 0.21537 -0.060448 0.31736 0.088949 -0.46349 -0.0026491 0.063184 0.30587 -0.3268 -0.026025 -0.39707 -0.041412 0.063048 0.30201 -0.6278 0.11332 0.044819 0.20266 -0.17333 0.028658 0.04355 -0.429 -0.34637 0.3145 -0.21513 0.18565 0.2802 -0.00059082 0.082974 -0.25975 0.28871 -0.52716 0.46304 0.32973 0.55213 0.30068 0.19169 0.59611 0.032212 0.26018 -0.70196 0.23934 0.22671 0.25616 0.8621 0.12164 -0.039058 -0.22104 0.39839 -0.51927 0.01892 0.069491 0.7435 0.17079 -0.14596 0.041317 0.059225 0.47353 -0.55337 -1.5413 0.036798 -0.92773 0.28061 -0.33555 0.25216 0.10029 -0.61777 0.3568 -0.41272 -0.1129 -0.1132 0.10328 0.56125 1.0426 0.06948 -0.30503 0.25204 0.24435 -0.2844 -0.63723 0.8185 -0.20296 0.39122 -0.37387 0.35084 -0.19204 0.42661 -0.042729 0.31399 0.40891 -0.28638 -0.17262 0.089541 0.55858 0.17686 -0.25324 -0.026148 -0.047781 -0.41583 0.76224 -0.68884 -0.1306 0.22158 -0.74186 -0.19789 0.32368 0.1418 0.60224 -0.053622 -0.13291 0.58202 0.67511 -0.3097 -0.046254 0.29122 0.45492 -0.099659 0.69151 0.36393 0.0233 -0.20223 0.090762 -0.35742 -0.19055 -0.23125 -0.022793 0.19851 -0.10543 -0.25839 0.25291 0.21066 -0.76023 -0.4478 0.6916 -0.17307 0.23441 0.69701 0.15114 0.22693 0.068964 -0.14868 -0.012042 -1.0058 0.57037 -0.35059 -0.027398 0.31181 0.033532 -0.21601 -1.4294 -0.77081 0.89029 0.28394 0.63365 -0.018811 -0.41617 0.26515 -0.43391 0.033863 -0.042536 0.46039 -0.13789 0.32206 0.020422 0.10406 -0.28385 -0.27959 0.4357 0.53151 -0.050183 -0.27263 0.13742 -0.16683
italian 0.054945 0.35053 -0.19274 0.086931 0.066061 -0.50043 -0.82556 -0.48779 -0.57528 -1.3889 -0.47738 0.17839 0.55299 0.77628 -0.041931 -0.36738 0.31991 0.0027098 -0.085436 -0.061328 -0.32075 0.24777 0.42455 0.047295 -0.033138 -0.5684 -0.13538 0.05451 -0.16119 -0.086712 -1.0984 0.57454 -0.32097 -0.034612 -0.63606 0.042245 0.37835 -0.99728 0.2811 0.41562 0.030512 -0.69232 0.10732 0.0098799 -0.14747 -0.26648 0.35007 0.73326 -0.40339 0.33057 -0.49295 -0.35602 0.68262 0.67907 -0.1075 0.69172 -0.060073 -0.22746 0.9168 0.47562 0.073682 -0.10025 0.11948 -0.59411 -0.41504 0.32879 -0.5354 -0.17532 -0.14672 -0.91533 0.6622 0.2456 -1.0231 -0.75796 -0.05381 0.43961 0.81264 -0.15358 -0.085775 0.15327 -0.21508 -0.28548 -0.18102 0.54383 0.45028 0.68463 -0.015109 0.26764 0.27557 0.67911 0.52522 0.15477 -0.24222 -0.39305 0.65962 -0.10997 -0.55438 0.10601 -0.88477 -0.20829 0.089554 -0.029435 -0.1421 -0.68601 -0.27776 -0.30166 -0.36764 -0.41708 0.58347 0.073028 0.64098 0.34791 0.026199 -1.209 0.57546 -0.052522 -0.39307 -0.092044 0.54144 -0.10664 -0.2144 0.63279 0.35042 -0.19068 0.3658 0.040554 -0.18347 0.076074 -0.15819 0.64953 0.029365 -0.61268 0.14027 0.033731 0.34139 0.029312 0.26468 -0.18073 -0.30354 -0.86521 0.33492 0.047679 -0.6037 0.59355 0.38797 0.31308 -0.035874 -0.67967 -0.44408 0.44984 0.26573 0.38244 0.2298 -0.040827 0.25314 -0.12136 -0.39747 0.76852 -0.52303 -0.89508 -0.067511 -0.44319 0.22982 0.41103 0.0044672 0.30828 -0.28948 -0.23741 0.41341 -0.27604 0.16986 0.37851 -0.82225 0.48854 -0.58984 0.11555 0.068751 -0.25202 0.25153 -0.020629 0.53743 0.30467 0.17286 0.66724 0.36587 -0.31205 -0.99433 0.0015585 0.25898 0.15944 0.24245 -0.024753 -0.048898 0.26701 0.21204 -0.57887 -0.57576 -0.026185 -0.27308 0.5268 0.9223 0.13035 -0.053841 0.1592 0.17325 -0.32007 -0.44901 0.32114 0.2875 0.063623 0.2536 -0.17482 -0.32892 0.070788 0.32278 0.10404 0.59546 -0.92999 0.027985 0.52771 0.73713 -0.078995 0.25764 -0.63102 -0.50833 -0.44453 0.1296 -0.5336 -0.22108 0.14559 0.40761 0.010496 -0.40533 0.49098 0.87833 -0.010414 0.27255 0.52812 -0.30984 0.21557 -0.040603 -0.50694 0.6129 -0.29154 0.60823 1.1527 -0.42773 0.035435 -0.23951 0.12565 0.29967 0.16109 0.26657 0.28729 0.56517 -0.40836 -0.087217 0.099275 0.071589 0.53519 -0.24852 -0.74137 0.013044 0.38742 0.39296 -0.32477 -0.35643 0.64369 0.41467 -1.1096 0.17839 -0.11608 -0.35412 -0.1492 -0.083097 0.093581 -1.4064 -0.23488 0.43136 0.048857 0.063547 0.39399 0.15334 -0.046718 0.14389 0.011764 0.1304 -0.10137 0.60302 -0.24797 -0.15307 0.15298 -0.63794 0.27734 -0.24347 0.70799 -0.43851 -0.30533 -0.2569 -0.25746
spanish 0.18857 0.11805 -0.24046 0.1051 -0.15965 0.091595 -1.1909 0.4893 -0.015627 -1.2204 -0.083174 0.71233 0.16975 0.84872 0.07511 -0.09215 0.013762 -0.08472 0.57215 0.041857 -0.52002 -0.21565 0.33733 -0.10037 -0.14234 -1.0784 -0.2934 0.75497 -0.17013 0.4673 -0.34767 0.46262 -0.48123 -0.12266 -0.27551 -0.50412 0.5939 -0.4719 0.35385 0.8313 -0.31207 -0.36094 0.24655 -0.104 0.60269 -0.53189 0.14254 0.42509 0.033037 0.52368 -0.01262 -0.13247 0.41283 -0.24819 -0.41037 0.38393 -0.013715 -0.64451 0.50783 0.24081 0.46157 -0.43273 0.48115 0.59688 -0.50968 -0.58747 0.29183 -0.072357 -0.14595 -0.83721 0.086127 0.85286 -0.62426 0.0682 -0.30035 0.023147 1.0655 0.12284 -0.19531 0.23542 -0.086979 0.089974 -0.31894 0.5913 -0.012318 -0.05366 0.005189 0.13542 0.46877 0.5601 0.56498 -0.1982 -0.24872 0.36769 0.2957 -0.011778 -0.23988 -0.4176 -0.44403 -0.21764 0.19076 0.087159 0.16446 -0.20841 0.39917 0.030298 -0.66752 -0.58872 -0.054105 0.44147 0.51656 -0.16064 0.066734 -0.95947 -0.14866 0.097218 -0.51706 0.22032 -0.051433 0.029879 0.16921 0.095109 -0.19876 -0.34221 -0.52981 0.2344 0.085943 0.55556 -0.17197 0.36013 -0.0075671 -0.66969 -0.26591 -0.15549 0.8661 -0.14789 0.31232 -0.047571 -0.13991 0.13983 0.37035 -0.33242 -0.24166 0.1012 0.51695 -0.15141 0.43289 0.33573 -0.38128 0.32697 0.60428 0.065436 0.27231 0.37043 0.49335 -0.21604 -0.65604 0.15975 -0.37208 -0.063835 0.86871 0.75334 0.44343 0.23831 0.040567 0.14843 0.018159 -0.34565 0.25862 0.29376 0.1232 0.56038 -0.50884 0.10776 0.51022 0.11777 -0.81118 -0.12151 0.17059 0.37138 0.40468 -0.32312 -0.22071 0.3899 0.15013 -1.0941 -1.2157 -0.13836 -0.22744 0.17493 -0.24128 0.23776 0.27705 -0.5539 0.76284 -0.021537 -0.69031 0.012727 -0.10843 0.6043 0.68626 0.30092 -0.079093 0.27132 0.22705 -0.64194 -0.42205 0.97485 -0.10558 0.57668 -0.1071 0.0011906 -0.3039 0.141 0.18959 0.64438 0.67744 -0.58356 -0.022226 0.5544 0.82714 0.26396 -0.14483 -0.058393 -0.027357 -0.25716 0.75368 -0.40848 -0.22278 0.032427 -0.26387 0.30584 -0.15216 0.5355 0.48822 0.19845 0.044704 0.31734 -0.16157 -0.33039 0.34526 0.080714 0.45083 -0.38509 0.45231 0.82183 -0.40012 -0.23237 0.11148 -0.10888 -0.049469 0.16011 0.045652 0.42229 0.30752 -0.088886 0.13708 0.43259 -0.46987 -0.31776 -0.027308 -0.34311 -0.0019191 0.67127 0.12448 0.11108 0.14175 0.0083714 -0.026272 -0.86274 0.32745 -0.71308 -0.030294 -0.078032 0.20239 -0.048727 -1.599 -0.25387 0.58163 0.33017 0.36629 -0.22858 0.028699 0.33319 -0.24989 -0.22544 -0.17411 -0.43643 0.088777 0.12738 -0.1157 0.012481 -0.89748 -0.47162 0.29762 0.46917 -0.30709 -0.2005 -0.59568 0.1835
brother -0.11814 0.33494 0.14149 -0.33411 0.097872 0.31051 -0.229 0.094854 -0.028885 -0.49931 0.070535 0.034667 0.015569 0.30867 -0.27278 0.032647 0.037408 -0.65477 0.31007 0.23016 0.16056 0.65167 -0.4279 -0.36951 -0.20036 -0.25427 -0.05752 -0.1611 -0.17912 -0.62489 -0.21235 0.54828 0.39863 0.44836 -0.5578 0.02979 0.50397 -0.24717 0.25563 0.40507 0.082534 -0.20336 0.17845 -0.15884 -0.17124 0.29002 0.3602 0.040157 0.28546 -0.21915 -0.053801 -0.14239 0.10804 0.36214 0.0086779 0.15435 0.15738 0.75719 0.12067 -0.89393 0.44052 0.20149 0.037837 0.42217 0.23499 -0.50865 -0.16821 -0.46236 -0.23135 0.35614 -0.1791 0.061091 -0.37066 0.27429 0.063426 -0.52874 -0.22419 -0.09048 -0.01487 0.50814 0.65999 0.48332 0.28526 0.14286 -0.37898 -0.036871 0.24653 0.47308 -0.023065 0.0245 -0.032739 0.25272 -0.24085 0.2637 -0.21625 -0.010186 0.16379 -0.34195 0.68959 -0.30929 0.17269 -0.46109 0.27937 -0.0050434 0.099582 -0.097157 0.16625 -0.023659 -0.13817 -0.055285 -0.18998 0.19958 -0.25314 0.01023 0.28309 0.064152 -0.17079 -0.27024 -0.018832 -0.60769 -0.47021 0.30485 -0.6312 -0.71101 0.25277 -0.17556 0.092603 -0.30591 0.56188 0.0037046 -0.1954 0.070285 -0.28231 0.14608 0.3385 -0.15976 0.38945 -0.7227 -0.44319 -0.14756 0.28347 0.12049 0.10853 0.18476 -0.30764 0.052905 0.11758 0.22062 -0.18308 -0.20989 0.48383 0.43701 -0.5437 0.31619 0.41626 -0.05052 0.55517 0.14378 0.38648 0.056044 0.74783 0.018104 0.33967 0.23765 -0.39514 -0.081774 0.042247 0.12842 0.31673 -0.092534 0.12706 -0.31631 -0.8458 -0.19403 -0.054546 0.08019 0.37766 -0.44061 0.00884 0.32351 0.06575 0.59598 -0.49328 0.76223 -0.24701 -0.19494 -1.1233 0.0307 0.10519 0.25625 -0.15847 -0.55573 -0.0013127 0.33517 -0.29733 -0.039766 -0.032266 -0.025259 0.35263 -0.32389 1.5034 -0.094508 0.35647 0.10412 0.17929 -0.029102 0.16616 0.24592 -0.30172 -0.37209 -0.22028 0.07616 0.32465 -0.23065 0.072509 -0.12525 -0.086572 -0.2941 -0.041578 -0.29036 -0.23491 -0.41139 0.0060111 0.19426 0.19478 0.44395 0.20656 -0.31957 -0.12677 0.0019394 -0.36557 0.16463 0.06488 -0.28222 -0.071776 -0.23249 -0.063205 0.17236 -0.36941 0.10158 -0.095615 0.22239 0.15444 0.4758 0.29167 -0.088044 0.11422 -0.16303 -0.34642 -0.36206 0.091365 0.18015 -0.17544 0.37579 1.3637 0.75922 0.54566 0.14627 0.23245 -0.3625 0.10773 -0.11592 -0.15032 0.12441 -0.26208 0.23912 0.13459 -0.065241 -0.080336 0.075961 -0.29128 0.03112 0.4297 -0.19921 -0.23583 -0.50796 -1.3763 -0.6399 0.07879 0.53043 0.20138 0.38039 0.10513 -0.17965 -0.019412 0.51207 -0.017703 0.53694 0.097375 0.22173 0.30509 0.27079 0.45947 -0.67324 -0.25553 -0.26001 0.5878 0.11813 -0.75083 0.81216
cars 0.36515 0.34974 -0.1196 -0.22882 -0.35199 0.11429 0.91977 0.5039 -0.31116 -1.5521 0.039607 0.1353 -0.036805 0.19931 0.026506 -0.09588 0.023185 0.035154 0.061583 -0.29535 0.49933 0.55415 0.49188 0.21471 0.13353 -0.34158 -0.12863 0.60599 0.7315 -0.46802 -0.29218 0.25592 -0.14892 0.15403 -0.38559 0.11339 -0.29245 -0.38235 0.115 0.15018 -0.17991 0.24053 -0.27834 -0.042922 0.037674 0.10541 0.55628 0.1199 -0.10345 -0.093191 -0.01691 -0.32889 0.11538 -0.15095 0.14826 0.48171 -0.082678 -0.31937 -0.6766 -0.18232 -0.66789 0.082962 -0.090908 -0.4843 -0.057531 0.55986 -0.67561 0.50363 -0.13906 -0.16109 -0.46137 0.58282 -0.18881 0.36105 -0.13135 -0.35506 -0.60607 0.089106 0.16965 -0.28544 0.077538 -0.19109 0.15035 0.70108 -0.28878 0.069068 0.22075 0.14555 0.071003 0.68491 1.3131 0.2909 0.28575 -0.53283 0.2421 -0.33906 -0.10656 -0.38917 0.029989 -0.31889 -0.29545 0.082986 0.53436 0.2841 -0.48013 -0.054318 0.54052 -0.34544 -0.52272 -0.50271 -0.261 -0.035092 0.10869 -0.33714 -0.03704 0.44755 0.18616 0.34591 -0.11578 0.14946 0.057786 -0.64046 0.44049 -0.035526 -0.60876 0.15327 -0.23507 -0.1555 0.25528 0.1182 0.51112 0.48536 0.40038 0.56693 0.080553 0.55819 0.36094 -0.5002 0.24542 0.043658 -0.20802 0.073128 0.35626 0.15752 0.015445 0.0013449 -0.10951 0.09693 -0.56411 0.34417 1.1145 0.3227 -0.11222 -0.51557 0.5504 -0.37306 -0.11107 0.25216 0.068625 -0.58368 0.21089 -0.083873 -0.8423 -0.068807 0.11683 0.0099318 -0.16953 0.51837 0.0060354 -0.41501 -0.0036487 0.29123 0.48397 0.50821 0.080432 -0.53858 -0.33442 -0.12314 0.23104 0.16856 0.14413 -0.25924 -0.16228 0.26691 0.55115 -0.42157 0.4256 -0.12151 0.27871 -0.13072 0.15774 -0.40846 -0.14033 0.3064 0.18125 -0.45085 -0.61235 0.5013 0.17211 -0.2903 0.38006 -0.31018 0.055084 0.5848 0.472 -0.66296 0.14995 0.072084 -0.14212 -0.65457 -0.14312 -0.154 -0.0013754 -0.114 -0.010118 -0.38171 0.39853 0.6123 -0.027091 0.10413 0.74749 -0.61039 -0.10394 -0.58655 0.29827 0.42479 0.23204 0.11486 -0.053817 0.057528 -0.29499 -0.72398 0.2484 0.12229 0.54332 0.187 0.61367 0.26458 -0.92915 0.024771 -0.46558 9.4607e-05 0.20393 0.69699 -0.48726 -0.70851 0.512 -0.37891 -0.022387 0.58948 0.11724 -0.60732 -0.17459 -0.2102 0.24314 -0.81927 -0.66755 0.25736 0.46455 -0.18001 0.1319 -0.44247 -0.44078 -0.18849 0.72185 -0.50922 0.097243 -0.84737 -0.016227 -0.22246 -0.098361 0.08727 -0.15614 -0.18191 0.49971 0.71385 -2.4372 -0.023887 -0.43105 -0.0038056 0.038696 -0.14997 0.091056 0.25872 0.10626 0.80495 0.24235 -0.27468 0.54588 -0.219 -0.091578 -0.027728 0.056424 0.53734 0.054956 0.35685 -0.18188 0.11587 0.8493 0.030442
ran -0.14723 0.055948 0.39662 0.14341 0.16087 -0.053379 0.35455 -0.4304 0.15259 -0.70982 0.079558 0.54544 0.13171 -0.28977 0.045787 0.48427 0.074755 0.22118 0.12769 0.11739 -0.11975 0.13561 0.20729 -0.057064 0.17932 -0.25069 0.0952 0.012787 -0.18939 -0.21383 -0.078339 -0.13994 0.72603 0.10086 -1.0596 -0.43041 -0.72057 0.41379 0.055716 0.17472 -0.28071 -0.33546 0.25893 -0.2491 0.44587 0.51824 0.64229 0.22008 0.15273 0.13386 -0.44767 0.090855 0.28443 -0.22144 0.28037 -0.16016 0.20972 0.035869 -0.43564 -0.55183 0.13887 0.26886 -0.26707 -0.55767 0.24358 -0.46435 0.031237 -0.077446 0.46998 -0.72885 -0.02944 0.22597 -0.11854 -0.19973 -0.20312 -0.30091 0.1837 0.18884 -0.091576 -0.079238 0.11124 -0.30979 0.62724 0.092874 -0.024944 0.086638 -0.10626 0.054907 0.43524 -0.15678 0.46677 0.15786 -0.20307 -0.037842 -0.10429 -0.11071 -0.031643 0.016835 0.35473 -0.59543 0.22217 0.14039 0.43578 0.011962 0.31526 0.069718 -0.14743 -0.16017 0.26548 0.53015 -0.32331 -0.19129 0.25308 0.32242 -0.346 0.069989 -0.48924 0.41564 0.07413 -0.26624 0.007725 -0.041522 0.3072 -0.38193 0.28504 -0.33662 0.18214 0.091566 -0.27543 -0.063845 -0.31259 -0.18822 0.21295 0.28979 0.068885 0.56386 0.10509 -0.032466 0.39928 0.0239 -0.26603 -0.36913 -0.11909 0.30368 -0.5794 0.45103 0.12189 0.13523 -0.016409 -0.22663 0.89217 0.60021 0.0045857 -0.43731 0.25631 -0.30282 0.21151 -0.04148 0.65679 -0.063258 -0.13801 -0.29233 -0.15798 -0.24436 -0.39673 -0.2018 -0.62018 -0.15166 -0.027612 0.3836 -0.0035257 -0.37227 -0.40739 -0.34907 -0.24039 0.53834 -0.062101 0.46605 0.12714 0.15705 0.28755 0.52045 -0.053816 0.060662 0.13949 -0.14191 -0.14241 -0.19178 0.51078 -0.20648 -0.11021 0.14299 0.05669 0.16308 -0.15519 -0.050079 -0.5441 -0.048427 -0.46874 0.10023 0.98189 0.22262 0.13856 0.13537 0.22237 -0.21318 -0.097589 -0.098016 0.28258 0.068022 -0.17175 -0.10046 -0.069882 -0.28405 0.14176 -0.31668 -0.5447 -0.30296 0.15331 -0.21742 0.77089 0.10433 -0.35229 -0.11591 0.41431 0.24054 -0.1421 -0.28634 0.196 0.31978 -0.28577 -0.22436 -0.48561 -0.20966 0.04463 -0.056785 0.13812 0.064507 -0.16334 -0.19986 -0.16148 0.14146 -0.16595 -0.10864 -0.44536 -0.43044 0.44247 0.0074577 0.23629 0.31353 -0.032038 -0.178 -0.26228 -0.040715 0.98709 -0.30692 -0.12849 0.26732 -0.097711 0.088008 -0.12546 -0.34545 -0.21943 -0.24176 -0.076603 0.18158 -0.14951 -0.5377 -0.029794 0.15967 -0.17167 -0.3265 -0.12927 0.2552 -0.23233 -0.16186 -1.4122 0.50363 -0.15166 0.75324 -0.25359 -0.25555 0.20766 -0.017967 0.057644 0.57781 -0.054125 0.063043 0.17683 0.0058762 -0.089365 0.54878 -0.090771 -0.11998 -0.011586 0.36014 -0.35787 0.046724 0.35655 0.39411
writer 0.21108 0.19271 -0.091297 -0.18406 -0.15326 -0.13241 -0.37692 -0.51449 0.22165 -0.60224 0.24474 -0.31787 0.31709 0.61243 -0.0043945 0.028293 -0.22213 0.26308 0.050683 -0.18881 -0.21204 0.15211 -0.61272 1.1418 -0.00099212 -0.09286 0.3789 -0.017001 0.037576 -0.096113 -0.12033 0.53433 -0.70064 0.46717 -1.222 -0.037481 -0.38639 0.3956 -0.07204 0.41999 0.57384 -0.010411 0.081057 0.38109 -0.023443 0.16555 0.16141 1.0072 -0.37351 0.17954 0.64097 -0.090102 0.36522 0.2673 0.071847 0.12445 -0.080653 -0.16855 0.30194 -1.0144 0.51862 0.14988 0.58627 0.34478 -0.62849 -0.15722 0.016124 0.44007 0.56822 -0.56892 0.43871 -0.38331 0.055899 -0.38256 -0.84484 -0.15559 0.72523 0.24335 -0.0054829 0.10732 0.53071 0.087599 -0.15903 0.27827 -0.54424 0.42622 0.81162 0.65575 0.060102 -0.39718 -0.50967 0.51003 0.057338 0.18888 0.10708 -0.081109 0.071524 -0.24175 0.32584 -0.43766 -0.66392 -0.73875 -0.33262 -0.094277 0.23087 -0.17405 0.34756 0.061854 0.31673 -0.65235 -0.17469 0.5064 0.17378 0.2873 0.37529 0.15845 -0.32048 -0.68944 -0.21936 -0.8482 0.24651 0.62443 -0.10011 -0.051154 0.43774 0.11853 -0.05178 -0.39865 -0.024171 -0.28631 0.58329 -0.5306 0.28058 -0.31716 -0.19175 0.12934 -0.7787 0.13 0.24705 0.36309 0.58992 0.19468 0.15668 -0.01971 -0.020492 0.17598 0.039487 -0.019422 -0.54923 0.22714 1.2067 -0.17039 0.0092538 -0.30468 0.20324 -0.15125 -0.41443 0.51521 0.75861 -0.40702 -0.046516 0.07538 0.72286 -0.21084 -0.28281 0.13913 0.10861 -0.58488 -0.22382 -0.14241 -0.32512 -0.26166 -1.7812 0.13005 -0.23734 0.18294 0.1199 -0.88544 -0.19875 0.055961 -0.12346 -0.30811 -0.12271 0.34353 0.11413 0.020239 -0.83227 -0.34099 -0.083675 0.01407 -0.60875 0.44239 0.48274 -0.4732 -0.36267 -0.21165 -0.44644 0.0047758 -0.19525 0.40408 1.0955 0.25529 -0.011906 0.28522 0.38097 0.15153 0.11747 0.33459 -0.070293 -0.2527 0.012825 -0.52089 0.31395 0.52708 0.020666 0.29856 -0.48153 0.1228 -0.011242 0.3956 -0.23444 0.038284 0.054971 0.022318 0.017398 0.20101 0.65355 0.062334 0.35705 -0.28481 -0.44561 0.51156 0.0082846 0.33568 -0.45658 0.65651 -0.11347 -0.053331 -0.43544 -0.1996 0.40263 0.37163 -0.50118 -0.18768 -0.37917 0.2391 -0.54104 0.21292 -0.43915 -0.098624 0.024545 -0.14375 -0.47673 0.45468 1.7 -0.28633 0.57431 -0.70742 0.056952 -0.62099 -0.040064 0.052342 -0.17798 -0.44059 0.090755 -0.40556 0.18415 0.37363 0.00059216 -0.36027 -0.14308 -0.081725 0.26042 -1.012 0.012878 0.45414 0.11287 -0.56255 0.15571 -0.16032 0.054987 -0.13383 -0.31715 -0.91844 -0.34662 0.017986 0.0010143 0.095465 -0.85097 0.38511 0.19331 -0.23749 0.09919 -0.34855 -0.31896 -0.013703 -0.70454 0.34153 -0.45656 0.13107
fast -0.025955 -0.20685 0.58737 -0.421 0.18304 0.021848 0.7089 0.21395 0.44561 -1.5239 0.37851 -0.051491 -0.14199 0.061402 -0.11938 -0.095699 0.074187 -0.23819 -0.098477 0.58951 -0.26236 0.19011 0.38097 0.37176 0.338 0.22349 0.32996 -0.49704 -0.22734 0.14282 -0.47669 0.53551 -0.26718 0.0042411 -1.7463 0.093199 -0.52558 -0.13102 -0.57601 0.43472 -0.27902 0.1392 -0.22528 -0.1679 0.29416 -0.043356 0.3238 0.029138 0.1051 -0.035216 -0.16407 -0.36208 -0.39646 -0.2395 -0.072227 0.56354 -0.26339 -0.39891 -0.015807 0.29446 0.090866 -0.58321 0.33008 -0.027743 0.017437 0.48611 0.51703 0.31327 0.16234 0.31078 0.053239 0.29551 0.18459 -0.26956 0.34384 -0.61796 -0.13395 0.1757 -0.025016 -0.23273 0.066963 -0.083466 -0.085195 -0.19223 -0.19486 -0.33061 0.026017 0.32491 0.045 0.14668 0.48869 0.64209 -0.26432 -0.56861 -0.066999 -0.3031 0.03584 0.073527 0.19282 -0.50855 -0.47482 -0.13106 0.11459 -0.13064 -0.085651 -0.080209 0.39066 -0.079005 -0.39998 -0.14743 0.013015 -0.17649 0.093879 -0.061758 0.42962 -0.41293 0.037398 -0.14868 -0.37998 -0.034999 0.10618 -0.3812 0.4908 -0.21402 0.20124 0.32768 0.32485 0.19567 0.080358 0.013104 0.22168 0.099852 0.13897 0.36386 -0.037107 0.41035 0.431 -0.37014 0.1735 0.031736 0.21295 0.62237 0.092255 -0.056344 -0.73301 0.078468 -0.45315 0.067071 0.038662 0.12588 -0.11578 -0.33165 -0.15881 -0.015811 0.38271 -0.85301 -0.21734 -0.5289 0.25427 -0.74087 0.32516 -0.15032 -0.17128 -0.19731 -0.30973 -0.081566 0.18132 -0.13099 -0.037439 0.25651 0.03025 0.12717 -0.089211 0.25131 -0.20187 0.2761 -0.18226 0.075485 0.32957 0.21912 -0.069303 -0.54981 0.14963 -0.3352 0.55217 0.26203 -0.017318 -0.2588 -0.097497 -0.14086 0.5767 0.29621 -0.21967 -0.20734 -0.094175 -0.02193 -0.65083 -0.63352 0.53734 -0.5045 0.59789 -0.33832 0.57997 -0.069852 -0.1879 0.20739 -0.33124 0.43505 0.19344 -0.086686 -0.27563 -0.32005 0.40316 -0.14026 -0.33854 0.20917 -0.3352 -0.14842 0.094962 0.053459 0.50127 0.33281 -0.2403 -0.66884 0.25446 -0.21844 -0.064286 0.0089086 -0.2039 0.80243 0.18236 0.0026187 0.15158 0.13399 -0.46782 -0.16557 0.37596 0.11006 -0.16585 0.45858 0.064974 0.2616 -0.40361 -0.32084 -0.7002 0.2336 0.11145 -0.14695 -0.38791 0.25484 0.067935 -0.50755 0.057974 -0.049078 0.47068 -0.22708 0.25109 -0.040363 -0.15956 0.2604 0.37415 -0.32723 -0.79717 0.11638 0.41217 0.039915 -0.13806 -0.40851 0.28807 0.11041 -0.47493 -0.63424 -0.29236 0.30983 0.7503 0.074714 -1.5763 0.60363 -0.6885 0.11327 -0.013403 -0.12811 0.35697 0.67169 0.090573 -0.67079 -0.097845 -0.34657 -0.32898 0.075432 0.60242 0.36851 -0.030863 -0.24181 -0.39416 0.46034 0.090454 -0.78555 -0.38091 -0.44726
worst 0.33163 0.27915 -0.11811 0.17989 -0.060318 0.18507 -0.023901 0.5225 -0.080704 -0.94736 0.31822 0.93439 -0.23424 -0.037162 0.31202 -0.49964 0.086764 0.27866 -0.072254 -0.34549 0.23638 0.06561 0.45287 -0.13934 0.14503 0.019454 -0.31684 -0.55162 0.47783 -0.32116 -0.3256 0.3616 -0.26696 -0.72253 -0.73711 -0.21219 -0.4803 0.018879 0.046915 0.18166 0.42778 0.032947 0.52054 0.42903 -0.011133 -0.31897 -0.17532 -0.026432 -0.13853 -0.19019 -0.052272 -0.3246 0.33452 -0.12032 0.20689 0.13234 0.15673 -0.17929 -0.17771 -0.067577 -0.8935 -0.12505 -0.30707 -0.062474 -0.16207 -0.12361 -0.34207 -0.22414 -0.46411 -0.052744 0.32487 -0.083231 -0.66067 -0.35858 -0.41768 -0.44808 -0.19397 0.40691 -0.40091 0.19332 0.23985 -0.37742 0.21944 0.37588 0.81721 0.294 -0.37651 -0.15776 -0.1608 0.15706 -0.20201 0.62467 -0.21891 -0.57197 -0.11975 0.823 0.19111 0.45894 0.63092 -0.22769 -0.089906 0.38061 -0.07573 0.2391 0.22192 0.11887 0.21284 0.265 0.44118 0.22419 0.1349 -0.95453 -0.69498 -0.31714 0.31461 0.051233 0.94679 0.16834 -0.39433 -0.56672 0.27817 -0.88371 -0.56806 0.52475 -0.18376 0.27712 -0.2677 -0.030439 0.43868 -0.014515 0.32564 0.51447 0.18117 0.060064 -0.34366 0.20063 -0.5398 0.90501 -0.093303 0.7112 -0.10586 0.47245 -0.28964 0.501 -0.36863 0.29704 0.70124 -0.036568 -0.0064435 0.19108 0.18849 -0.59241 -0.084044 -0.21944 0.33424 0.17828 -0.39491 0.59609 0.20426 0.58982 -0.011791 -0.30662 -0.12683 -0.35323 0.073376 0.7259 0.56747 -0.10391 -0.24622 -0.4073 0.33568 0.17653 -0.40724 -0.28909 -0.26177 0.15577 0.10095 0.0055326 -0.18436 0.45336 -0.27721 -0.34093 0.15676 -0.01934 -0.10081 0.20606 -0.15374 -0.57779 -0.5418 0.23154 -0.27406 -0.18756 -0.20414 -0.45277 0.059392 -0.26598 0.18283 -0.11972 -0.27347 0.1354 1.1501 0.084133 0.79224 -0.32538 -0.1549 -0.16935 0.091534 0.11149 0.032748 0.33536 -0.77822 0.1648 0.20722 -0.32188 0.37852 0.20469 0.1993 -0.38337 0.21489 0.018256 -0.1441 0.11117 0.076605 0.39949 0.34627 -0.59861 0.54479 -0.71957 -0.10004 0.095449 -0.12594 -0.37351 -0.35848 -0.3804 -0.062333 0.11414 0.40927 -0.065298 0.37002 0.044723 -0.076962 -0.29536 0.50781 -0.39711 -0.20909 -0.0014059 0.44561 0.58208 0.30084 0.40209 0.22278 -0.035638 -0.071535 0.44623 0.32129 -0.26202 0.1807 -0.20658 -0.49075 -0.037029 -0.11446 0.23461 -0.17261 -0.023712 -0.069906 0.34979 -0.2838 -0.37678 0.37915 -0.036597 0.039225 0.39992 0.34149 0.44932 0.5207 -0.2234 -1.4636 -0.22642 0.39665 -0.15881 -0.49771 -0.10698 -0.084566 -0.1662 0.28929 0.15153 -0.061029 -0.66598 -0.11089 -0.1151 -0.32857 -0.55636 -0.079541 -0.02751 0.34249 0.53048 -0.56617 -0.43952 0.24385 -0.044471
